#include "mnist_coefficient.hpp"
using namespace dl;

namespace mnist_coefficient
{
	const static __attribute__((aligned(16))) int16_t l1_filter_element[] = {
		   473,   2625,  -5974,   4909,   4711,   3669,   5371,   3680,   -741,    987,  -6864,   4911,   3044,   4446,   3744,   1775,    995,    157,  -6316,   4341,   4609,   4423,   5207,   3033,    393,  -7736,  -3732,   3275,    260,     37,    171,    170,   -193,  -7559,  -4347,   2991,   1902,   -207,   1569,   1986,    771,  -8372,  -4468,   2017,   1411,  -1565,   1134,    445,   -609, -26630,   2699,  -2510,   1644,  -4284,  -5342,  -3137,   -163, -26230,   1938,  -3730,    194,  -4435,  -4229,  -3929,   -532, -24622,     69,  -3681,    850,  -2996,  -5611,  -4608,  -1890,    181,  -3138,   2479,   2654,   5411,   4050,   5233,    200,   1163,  -1649,   3290,   3531,   6412,   3519,   5567,   -415,    993,  -2777,   3262,   3225,   6633,   1322,   6622,    294,  -4740,   1002,   2960,   5240,   1855,  -6603,   2532,   2553,  -5216,    983,   1838,   3719,   1934,  -6352,    149,    924,  -2344,    453,    913,   6146,   1610,  -5585,    125,   2819,  -4340,   2860,  -2332,   2431,  -5724,   1385,  -5032,   3681,  -5195,   4005,  -1371,   3470,  -5890,   2384,  -4987,   3412,  -4956,   1891,   -381,    840,  -4391,   1519,  -5015,    260,   5036,    993,   3180,   1011,   3893,  -4340,   4193,   1463,   3799,    182,   1277,   1749,   1980,  -2169,   5537,    305,   3461,   1050,   2129,    246,   4412,  -4218,   5348,   3317,   2419,   2735,   3716,   5156,  -1348, -21990,  -2884,   2815,   3870,   3539,   2632,   5588,   -723, -22748,  -2815,   3765,   4060,   2718,   2493,   4816,   -894, -21252,  -3164,   1229,   1096,    428,   -411,   2279,  -2154,   3208,   -174,   4280,   1349,   1961,   1007,    560,  -2260,   1910,  -1855,   3659,   1587,   2914,   1830,   2303,  -1364,   1296,  -1523,   1837,  -1317,   2778,  -5529,   5430,     86, -22422,   2774,   1565,  -1033,    170,  -5762,   4594,   -757, -24079,   3414,   -890,  -1061,   2717,  -5522,   3275,  -1286, -21751,   3143,  -5130,  -5734,   2976,  -7233,   2662,   -207, -11115,   4456,  -4226,  -5727,   5293,  -8849,   1659,    -62, -10456,   1759,  -5160,  -4849,   3836,  -8325,   2167,   -557, -10747,   2470,  -2765,  -7536,    415,  -1005,  -1164,   -484,   -604,   4598,  -5322,  -5899,    682,  -1230,    788,  -1538,  -1411,   3779,  -4061,  -8497,   -433,   -885,    -44,   -658,   -714,   4901,   1387,   2358,  -1954,  -2485,  -2892,   -796,   -217,  -2533,   1533,    495,  -2006,    324,  -1722,   1129,    262,  -2039,    116,   2732,  -2285,  -1461,  -1358,    470,   -448,   -820,   1303,   2112,   4844,  -7504,  -8983,   -814,  -1417,  -1821,    246,   1458,   6578,  -6280,  -9053,   -381,  -2893,   -231,   2766,   2803,   4847,  -7656,  -7278,    684,    -27,   -643,   4478,   1496,    542,   -919,  -5539,   -923,   4902,   7009,   4673,   3843,    -86,  -1206,  -5977,    257,   3167,   9006,   6191,   4205,  -1797,  -2323,  -5467,   -628,   2439,   8059,   2135,    534,  -3156,   4322,     77,  -1033,    718,  -2188,   -535,   1696,  -5402,   6417,  -2226,   -529,   1364,  -2587,   1149,    586,  -3601,   6125,    -95,  -1451,   1001,  -1803,   2292,   1263,   8128,    -61,   -336,    272,   3015,   -217,    355,    684,   8355,   -568,   -700,    366,   3400,  -1257,   1808,   3037,   9020,    892,  -1791,  -1493,   1262,  -1577,   5564,   3297,  -2143,  -8005,  -4016,   -291,   2526,   5940,   5540,   1546,    177,  -7437,  -4465,   -700,    242,   5967,   5354,   2491,  -1503,  -8086,  -3203,   -400,   1701,   5535};

	const static Filter<int16_t> l1_filter(l1_filter_element, -13, {3, 3, 3, 16});
	const Filter<int16_t> *get_l1_filter()
	{
		return &l1_filter;
	}

	const static __attribute__((aligned(16))) int16_t l1_bias_element[] = {
		     2,      5,      1,      2,     -4,      8,      5,     11,     -3,      2,      0,      0,      3,     23,     10,     -4};

	const static Bias<int16_t> l1_bias(l1_bias_element, -2, {16,});
	const Bias<int16_t> *get_l1_bias()
	{
		return &l1_bias;
	}

	const static ReLU<int16_t> l1_relu(RELU);
	const ReLU<int16_t> *get_l1_relu()
	{
		return &l1_relu;
	}

	const static __attribute__((aligned(16))) int16_t l2_depth_filter_element[] = {
		   173,   4667,    572,   -618,  -9737,   -419,  -4353,   1379,   2338,   3220,  -2039,  -1215,  -4873,   4765,   7828,  -5540,  -1067,   2572,   -149,  -3261,    860,  -4667,   7911,   4076,   4051,   3958,   3538,  -6010,  -3989,   -842,   5257,   1164,   5197,   8306,   6238,   2530,  -8314,   6073,   8685,  -7309,  -2489,   1441,   1033,   1188,   -357,  -4874,   7101,   5638,   1354,  -9142,  -5835,  -2408,   3037,    422,   3264,   -647,   1108,  -2329,   3880,   2907,    638,   -130,   3199,    230,  -3311,   -484,    182,   3637,   2928,   -400,  -3808,    929,  -3188,  -1540,  -3296,   6685,  -1119,  19608,  -1753,  -4692,  -3073,   -178,   -213,   4144,  -2850,   9667,   5292,  -2660,    -16,   -308,  -2945,   3870,  -4356,   3041,   4577,  -4912,  -6057,  -4685,  -6077,   7496,  -4897,  25132,  -4768,  -8183,   -559,  -4812,   5881,   -394,   3772,  19491,   4973,   2749,  -6592,  -7932,  -2709,    -12,  -1358,   -494,   7032,  -4085,  -7021,    940,     82,   3745,   2118,  16104,    928,  -2467,   -248,   4542,   2640,    849,   5167,    961,   -725,   4340,   4125,    139,  -2991,   6393,  -4528,   1704,  -2949,     82};

	const static Filter<int16_t> l2_depth_filter(l2_depth_filter_element, -13, {3, 3, 16, 1});
	const Filter<int16_t> *get_l2_depth_filter()
	{
		return &l2_depth_filter;
	}

	const static ReLU<int16_t> l2_depth_relu(RELU);
	const ReLU<int16_t> *get_l2_depth_relu()
	{
		return &l2_depth_relu;
	}

	const static __attribute__((aligned(16))) int16_t l2_compress_filter_element[] = {
		 -2147,   8894,  -1870,  -7231,   -901,  -3405,   -406,    553,   4038,   5329,   5998,   3357,  -6766,   2937,  -2803,  -6624,  -5761,  -2602,  -2947,   1133,   2728,   7768,   5854,   3415,    734,   2758,   1578,    790,  -4712,  -2681,  -1797,  -3357,   1523,  -3607,    279,   -929,    849,   1739,  14048,  -6545,   -957,  -2832,   1474,   4458,   4570,   1494,  -1463,   1293,  -8800,   1146,  -1741,  12094,   7697,   4559,  -9246,   3115,   4945,    555,  -3406,   1703,   2739,   2076,  -2367,  -6058,   -603,    393,   3859,  -3177,   5345,  -3423,   6165,     90,  -2947,   5908,  -5850,  -3618,  -3410,  -1003,     21,   6118,  -5752,  -3883,  -2220,   2300,  -2298,   -845,  -1185,  -5856,   5166,   2052,  -8633,  -4472,  -6793,  -1691,   6480,   2009,  -6811,  -3808,    350,   4613,   1460,   1143,  -3966,   1214,   7014, -29479,  -1251,   4982,  16283,  -3813,   3583,   8612,   1730,  -2352,   9111,   -612,   6052,    890,  -1110,   1177,  -5967,   3739,   1314,   2070,  -1965,   -486,   2206,   1771,  -7332,    374,   -124,   5223,    573,  -1480,   -160,  -1656,     57,  -9633,  -1642,    475,  -5319,  12514,   9507,   3864,   2877,  -2353,  -2427,   7412,    102,  -3380,   -417,   3020,    787,   1964,   -464,  -2822,  -3012,  -8250,  -3249,    -78,  -2281,  -4071,   2917,   4463,   2606,  -1855,  -2537,   4607,   -454,   1891,   6169,   3321,   2698,    815,   -337,   2966,    875,  13837,  -9116,  -2545,   7767,   1888,  -1037,   2800,   2326,  -2404,   2054,    320,   5422,  -1356,   -541,   -760,   2989,   1597,   1881,   7454,  -1350,    262,  -7873,   2196,   -460,   1758,  -6283,   5061,  -5434,  -2071,    923,  -2914,   5158,  -4998,   7462,  -3383,  -3319,   2673,   1049,   2913,   -946,  -9362,  -5684,    609,  -9163,  -1788,    374,  -8637,   4777,   1385,   2566,   2003,   -603,   5052,   3267,   1514,   3050,  -2053,  -3618,   -649,   1055,  -1922,   1980,  -3767,    611,  -3547,  -1090,  -6836,   -583,  -4272,  -7425,   6509,   8182,  -5134,   3506,   4321, -10513,  -4195, -11058,   1605,   4041,    850,   -403,   -755,   1791,   2583,   5236,    -67,     25,  -2443, -10217,  -3577,   2831,    939,  -4497,   -444,    243, -13098,    866,   4710,  -3285,  -4808,  -1673,  -1806,   3913,   2159,   1559,   4305,  -1288,   3928,  -1510,  -6632,    647,   5954,  -6660,   3116,   -628,  -6625,  -8822,  -2767,   7008,   2268,   5513,  12693,   2419,   1176,   3976,   7609,  -2023,  -4623,    359,   1045,  -4104,    449,   3730,  -5341,   -433,  -1722,   4222,  11477,  -9831,  -1868,   2774,    695,   3785,  -4217,  -4556,   2368,  -1652,  -3851,  -4096,    -74,   3119,   -469,  -1549,  -4450,  -1440,   4600,  -2444,  -3119,    368,   -630,   -252,   8147,  -3252,  -4224,  -2178,  -2926,   4786,   6637,   3643,  -2138,  -7762,   6789,   1934,  -4623,  -2269,   3200,   2921,    253,  -3129,   2949,   -805,  -4269, -13296,   8845,  -5262,  -5125,   3784,   1401,  -5115,   5764,  -1603,  -3473,  -8886,   5163,   5731,    187,   -623,  -1748,  -4090,    802,   -826,   3061,  -1836, -10962,    981,  -9381,   2166,   8766,  -1871,    628,   2017,    886,  -5192,   1731,  -7106,  -2028,  -1494,   6329,   -864,  -3031,   7734,  -9689,  -2770,   6243,   -998, -12199,   1972,    588,   -269,   2400,   -541,     92,    352,  -3054,   -949,   4198,  -4383,   4773,  -3311,    907,  -2149,  -1166,   2636,  -4032,  -2243,  -2543,    859,   4295,  -1644,  -2917,   -642,   5227,    406,    190,   3024,   2140,    471,  -4941,  -2148,     69,   2491,   6335,   4566,    211,    387,  -3309,    495,   2462,   1185,  -1081,   1854,   3810,  -2987,  -5650,  -6990,   4876,   5895,   -842,  -8287,   3346,    -55,  -9692,   1006,   5441,   -135,   3557,   3094,   3011,   -211,  -3779,  -8548,   9208,  -3718,   3767,  -6089,  -3327,   1162,  -6442,  -3768,   7040,   2498,  -7077,   -239,  -1436,  -2963,   3151,  -1788,  -4063,   1235,  -3633,    206, -16689,  -3539,   1174,  -9657,  -8722,   9551,    947, -10292,  11139,    453,   5758,  -1811,  -2071,  -5097,  -1771,   1768,   1393,    258,  -1127,  -2996,   1825,  -5877,   2016,
		  4096,   -341,  -2527,   7117,   3860,    574,    185,   8174,   1755,   7188,  -4224,   7026,    871,   1983,    985,  -1340,   -126,  -3625,   4383,  -1433,   4559,  -1299,   3205,   -736,   1479,  -6989,   4182,   4987,  -6434,   1722,   2889,   8747,   3041,    779,  -1293,  -2100,   1733,  -6311,   4867,  -1570,  -2468,   4424,  -3685,   1471,   -640,    536,   7043,   4556,   3177,  -1995,   2983,   2291,   6956,   8756,   -269,    667,   7382,   -958,  -1179,    367,  -4179,  -7658,  -2453,    808,  -3064,   -325,    164,   9556,   6090,  -5969,   2834,  -4983,   3530,   -531,   3124,   2282,   7443,      5,    -59,   4082,   2942,  -8742,   1262,   3641,   4255,   5256,  -4944,   1792,   1855,   -634,   8240,   2662,  -5673,  -2174,  -4725,  -3515,   -807,   5422,    -41,  -9804,   6661,   2471, -11078, -11996,  -6850,   8581,  -3414,  -7641,  -3350,   5065,  -2039, -13183,  -8223,    919,   3259,   4548,   4927,    148,    383,   1881,  -3048,  -5134,  -6781,   1956,  -1434,   -436,   4854,   1447,   -414,  -5670,    905,   1767,   2116,   -402,  -1811,   1511,  -4603,   -272,  -4265,  -2246,   3478,   1716,   9301,  -1853,  -6083,    329,   -431,   3620,    -39,   2028,  -2061,   -498,   3573,  -1605,   1130,   3419,   2570,    504,   -761,   5455,  -2298,   3330,  -5205,   1520,    661,   2213,   4167,  -3739,   4910,   -936,   8696,  -5044,  -7634,  -6587,   1178,   7044,   1189,   5523,   4284,  -2397,  -3684,  -6214,  12558,  -3051,   2068,   2445,    909,    654, -11398,  -5717,   -873,  -1322,   3060,  -5138,   2331,  -3949,  -8320,  -1842,   6837,    721,   -730,  -4338,   -180,   7164,  -1633,   2269,   9261,   1974,    862,   -560,   3021,  -4570,  -5280,  -7136,  -3873,   6183,   7628,  -1149,   -775,  -2707,  -1256,  -4727,  -1205,  -2126,  -3542,   4348,   5228,   2114,  -1811,  -3654,  -3626,  -5886,   2521,   1894, -14930,   5568,  -8228,   2080,  -3891,  -7420,  -6025,   4457,  -2658,   2643,  -3774,  -2189,   -869,   -902,  -2386,  -2266,   2236,   2123,  -2916,  -3263,  -9113,   5869,  -5147,   2249,   3208,   5700,  -2881,   2076,   1277,  -6048,  -3145,   6263,  -1442,   6572,   3738,   1537,  -8158,   1914,  -3299,  -5584,   2252,   8694,   7005,   2302,  -8791,   3647,  -8071,   3355,  -3193,   3651,   1957,  -3447,    513,  -2400,  -4249,  -2165,    686,     92,    795,  -1511,  -6030,  -4332,   -359,   2964,  -7153,   3058,   1841,     78,    545,    350,   2267,  -1931,   2222,  -2535,   2500,   3122,  -3700,   2339,  -4356,  -4065,  -5852,   2331,    632,  -4700,  -1173,  -2089,   1813,  -5112,   1530,   8832,   1428,   3183,   -867,    420,  -5393,    -15,   1791,  -3186,   1929,  -5678,   -563,   4115,  -6429,  -1478,  -6395,    991,   2656,  -4881,   -563,   4321,   7183,  -3673,  -2376,  -8152,   4525,   -551,  -3401,  -9206,   5319,  -6458,   3152,  -3824,   4662,  -1823,  -3951,   3799,  16002,  -5271, -10344,  -7398,  11791,  10565,  -1767,  11147,   4636,  -4384,   -385,  -6234,  -3035,   9934,  -3892,  -7463,  -1564,   -655,    785,   1091,  -1019,   -499,  -8006,  -1245,   6844,  -1436,  -4875,   1732,  -3942,   1703,   4166,    969,   -986,   3262,  -1457,    921,    504,    114,   1633,   2278,  -3014,   -905,  -4531,   4873,   -299,   3542,      0,  -5937,  -8661,   1491,   2847,  -1488,    296,  -2878,   2144,  -2957,   -417,  -1550,   4287,   1470,   4175,  -2290,   2341,  -5322,   2168,   1611,   3743,  -9488,   4487,   3041,    863,    882,  -1116,   7412,   7355,  -8196,   8111,   5175,   2547, -14010,  -1869,  -8206,   1658, -10115,   2086,    790,   2140,   -493,  -4523,    711,  -7735,  -7130,  -1126,  -5434,  -3400,    -56,   -806,  -4665,  -5892,   7526,  -4317,   4761,  -1293,  -1803,  -1377,  -8691,   4231,   1543,   7341,   1377,  -3616,   1559,   -219, -12559,   2221,  -8229,    540,   6135,  -6849,   7151,    441,   2679,    611,  -3319,    997,  -4625,  -4298,  -4660,  -3558,   8933,   2101,  -7103,   2836,  -3500,  -8293,  -3832,  -1407,  -3873,  -2002,   4968,   5130,  -4483,  -1576,   3675,   2213,  -3192,    440,   1417,    172,    -61,   3979,   1273};

	const static Filter<int16_t> l2_compress_filter(l2_compress_filter_element, -13, {1, 1, 16, 64});
	const Filter<int16_t> *get_l2_compress_filter()
	{
		return &l2_compress_filter;
	}

	const static __attribute__((aligned(16))) int16_t l2_compress_bias_element[] = {
		    -3,     -6,      5,      5,     -2,      4,      1,      2,      7,     -1,      7,    -10,      0,      0,     -2,      1,    -12,      1,     15,    -18,     -1,     -1,      0,      0,     10,    -10,     -2,      7,     -1,     -4,      0,      5,     -1,      3,      3,     -5,      3,      5,     -4,    -17,      8,     -6,     -9,     10,      3,     -5,     -6,     -3,     22,      0,     -3,     -7,      0,      0,      2,      6,      1,      3,      1,     15,     -8,     -2,     -4,      2};

	const static Bias<int16_t> l2_compress_bias(l2_compress_bias_element, -3, {64,});
	const Bias<int16_t> *get_l2_compress_bias()
	{
		return &l2_compress_bias;
	}

	const static __attribute__((aligned(16))) int16_t l3_a_depth_filter_element[] = {
		  1571,   7010,   4609,   6397,  -1201,  -1274,   2781,    720,   1859,   1696,  -8181,   1639,  -4121,   8529,  -3357,   -307,   3611,   -554,   -445,   3658,   3963,    738,  -3983,   1919,   4626,    441,  -2508,   3885,    421,  -4880,  -6020,  -3059,   -480,  -1395,   1972,   2205,  -2998,  -4303,   3957,    964,   2099,   -839,   -233,  -1233,   1190,    214,   1323,   2616,   5149,  -8579,    536,   3236,   3204,  -1845,  -1168,   7586,   6393,    424,   2798,  -1138,  -5701,   2684,   4139,  -4170,  -2244,   1778,   -320,  -5432,    606,    211,   1400,   -748,    333,   1016,  -2743,  -2332,   9852,   2789,   7860,   1938,  -1688,    841,   2385,  -1914,  -2165,   3698,   2755,   1404,   9646,  -1421,    873,  -1594,   1565,  -7419,   4946,   5791,   -287,  -1087,  -3255,  -2158,    767,    370,   2778,    -92,  -1068,    946,  -1159,  -1318,   -747,   3144,  -1896,    339,    489,   -475,  -2242,  -3801,     53,  -2504,  -1987,   2566,   2079,   4066,   7405,  -1118,   -194,  -1066,    574,   -232,  -4382,   5635,  -2519, -12592,   -434,  -3202,   3760,    591,  -5596,   4572,   -411,   3946,   1097,   4368,  -2443,   1275,  -4721,   -930,   4122,   3483,  -4079,  -4749,  -3545,  -2535,  -8111,   5208,   2101,   1309,   6158,   1164,  -5160,  -2429,  -4184,  -5088,  -3961,     57,  -3791,  -4375,    795,   4174,   -482,   1983,  -1905, -16955,   1790,   -483,   2268,    844, -11351,  -5143,  -2049,  -1679,  -1136,   2710,   -573,   3528,  -7537,   -102,   2867,   -739,   3853,  -1612,  -4375,   -377,  -7235,   1722,  -5446, -26215,   1163,   1657,   5480,  -2738,   -814,  -2378,   3859,   1247,  -1850,   1109,  -4871,   1214,  -1933,   -967,   1546,   2221,   -878,  -3011,    745,  -5618,    689,    669,    853,   6395,   -784,  -4586,    499,  -1267,  -1462,  -1481,    427,  -3952,   1004,   5404,   6912,    404,   1769,   5289,     93,   2698,  -3542,  -5671,    175,   1087,   -911,   -763,   1315,   3028,   1464,   1709,   -766,   2357,   3044,   2077,    511,   1197,  -1741,  -1980,  -1239,   2452,    -16,   2719,   1386,   2370,   1828,  -5510,  -1838,   3149,    832,    947,   1016,    754,    956,    818,   -434,   4866,   2625,   -147,    931,   3063,   5035,  -2572,  10996,   1188,  -8010, -10305,    537,  -7075,    812,   2127,   2306,   2728,  -8094,  -2361,   1419,  -1665,    174,    738,  -2034,   -678,   -338,  -3838,   1605,   3873,   3743,   1920,    718, -11647,  -2131,   3433,  -2001,  -2425,   2887,   1262,   1407,  -1463,   -829,    480,   2416,  -1380,   5791,   1074,  -1189,   1415,   -769,   4453,   2005,   -711,    168,  -1455,   -753,  -7318,  -5762,     20,  -2276,   7879,  -3132,     91,   -905,  -1428,  -5831,    248,   1123, -17623,  -2558,  10753,   6973,   3330,   1811,   1694,   -353,  -9782,  -3146,  -1571,  -2042,  -4070,   5102,  -2175,  -5235,  -6764,   4015,   3492,  -2253,   2537,   1763,   5161,  -2721,   -827,   -813,   6126,  -4537,   -180,   3838,   8363,   1925,  -5091,  -3981,   8494,   2394,    178,   1469,   5323,   -822,  -1644,    752,  -1310,    482,   4994,  -1783,   -517,   3985,  -1712,   -417,   -728,   1344,    596,  -4239,  -2184,   4145,   1113,  -2359,   4774,  -2404,  -1238,  -1608,   2866,    871,    705,   2876,  -3884,    269,   1474,   4646,   3384,  -5136,   2839,   1435,  -1689,   -498,    117,  -4743,  -3959,  -4504,   3469,  11396,   2311,  -2151,   1519,   1569,   -792,   1950,    761,   1868,    983,  -6336,  -8045,  -1263,   5276,   -319,  -7240,  -3972,   5710,  -4657,  -2956,  -1375,   -728,  -1176,   3413,      1,   1249,   1999,   1523,  -3227,   -797,  -3883,  -3845,   -330,    157,   7798,   -171,  -2193,  -3118,   -849,  -5836,  -1961,   -476,   4339,  -4447,   -322,   -246,  -1373,    785,   4380,   3184,  -1125,   6234,   2244,   2115,   5162,   3922,  -2674,  -2525,  -4212,  -2785,  -1483,  -5221,    952,   2309,   6141,   2000,   3755,   4393,   2175,   -586,   6475, -11127,  -1657,  -1444,  -4852,   3986,  17254,    858,   3089,   1935,  -2823,   3199,    997,  -3448,  -2938,   4108,   5115,   2319,   2697,   1927,   4497,   1381,
		  1871,    956,   1028,    885,  -2192,  -2064,  -1907,   3433,   4316,   6480,  -5489,   6803,  -2406,  -5117,  -6309,  -3371,   2455,  -2877,   3689,  -2299,  -1889,   4753,   1052,  -2578,  -1707,    142,   2248,  -1260,  -1784,  -1748,    784,  -5058,   -947,   2116,    561,   9372,   3121,  -2246,  -2643,   5588,   5028,   -371,    863,   -813,  -4318,   2540,   -331,   5662,   -494,  -1295,  -1673,  -4467,    992,  -3002,   2530,    615,  -9509,   2069,   2654,   2683,    624,    449,   1255,  -4867};

	const static Filter<int16_t> l3_a_depth_filter(l3_a_depth_filter_element, -13, {3, 3, 64, 1});
	const Filter<int16_t> *get_l3_a_depth_filter()
	{
		return &l3_a_depth_filter;
	}

	const static ReLU<int16_t> l3_a_depth_relu(RELU);
	const ReLU<int16_t> *get_l3_a_depth_relu()
	{
		return &l3_a_depth_relu;
	}

	const static __attribute__((aligned(16))) int16_t l3_a_compress_filter_element[] = {
		 -5888,   3109,  -4564,   2633,   5086,   2365,   -666,   1208, -10224,   6317,  -4897,   3061,  -6275,  -7960,  -5009,   1706,  12325,  -6163,  -3121,   -223,    815,  -5795,   1915,   6359,    249,   9005,   2203,   7441,   5988,  -3555,   2524,   3799,  -8402,   1644,  -1115,   3380,   5625,  -1014,   6283,   -388,  -1829,   7973,  -1615, -11340,   5482,   8131,  -4352,   2709,  -3325,  -1042,  -1062,   -178,  -5924,   1757,  -1404, -14853,   6666,  -6978,  -3099,    655,   -337,   4056,  -4074,  -5661,  -1635,  17640,  -2021,   6891,  -1158,   2912,  -3959,    800,   5292,   7258,  -3861,   -892,   2641,   -666,   4335,   1155, -11895,   7992,   2902, -10279,   1440,   5806,   3011,    406,  -7155,   2186,   5350, -14192,   8061,   7135,   7817,  -1984,   2735,    735,  -2199,   -520,  -1064,  -3028,   2701,   5410,   4588,   3137,    215,   5680,  -3203,  -4108,  -1871,   6824,  -5942,   9479,   7810,   6016,  -4724,   3662,  -1815,  -4622,  -2669,  -8524,   1249,   6990,    578,  -3580,   2582,   2909,  12709,    879,   3052, -11903,   3794,  -5742,   3448,    631,  -2003,  -4569,  -3777,   6895,    890,  -7475,   4954,   2261,   1667,   1488,   -609,  -1464,   1047,   4383,   -581,   -229,  -1531,   1273,  -6883,  -6542,  -8051,   1597,  -6071,  -6574,  -5890,    384,  -4779,   9541,   5065,   4465,    285,   3157,  -6859,  -3470,  -1742,   1363,   1357,   -996,     33,   6799,  -1169,  -1368,  -1172,  -1389,   2108,    938,   -677,    -97,  -1507,     53,   5677,  -1262,   3303,  -6429,  -4763,   2510,   3631,    420,   4333,   -595,   2333,   -195,   1155,  -3437,  -4656,   1007,  12727,  -5914,  -8012,  -9855,   7113,   1957,  -1305,    391,  -1284,   -585,   1689,   -382,   2061,   -626,   3109,  -5358,  -8141,  -3673,  -2117,  -1838,   1369,   5663,   3722,   2521,  -2390,  -2839,   3709,   6601,  -5412,   -384,  -1459,  -7649,  -2447,   4987,   -659,   5366,    735,   -483,  -2648,   1125,   8856,  -2979,  -8618,  -5198,  -5981,   1932,   1399,    635,  -1910,  -1946,   5573,   -916,  -3473,    990,   6685,  -1386,   1725,   1743,   4776,  -5545,  -1986,  -2876,   2057,   1916,   7786,    790,   2867,    451,  -4423,  -5404,  -2109,   3607,  -8109,  -5635,   2766,  -5873,   3564,  -9753,  15122,  -5012,  -7671,  -4501,   4243,   1225,  -5201,  -7667,   4886,   3964,   4623,  -1692,   2692,  -3985,  -4781,   -891,  -2389,  -3204,   3049,   9184,   6975,    348,   -683,  -3285,  -1442,  -4949,  -2995,    374,   5664,   3934,  -5304,  -4306,   6252,   6821,  13549,  -5303, -14664,   3771,  -1030,  10266,  -1425,   1796,   8051,  -6958,  -2522,   2174,  -2650,   8440,  -5935,  -1757,   4445,   4278, -10967,  -3419,   -911,   2299,  -2988,   8901,   1040,  -2255,  -7420,   4913,  -2832,   2118,  -2676,   3141,   2556,  -6315,  -4456,   8076,   2958,  -1001,   1121,  -1476,   4570,  -6773,  -1544,   3197,  -4570,   5938,    472,   6444,  -1167,  -8438,  -7290,   1051,  -5055,   -127,   -900,  -1124, -10018,  11342,   6019,   4054,  -2374,  -4681,    892,    294,  -1370,   1697,  -4027,   -170,   8840,   6499,   1001,   1735,   9798,  -2719,  -7028,  -9307,   2617,  -1790,  -1311,    574,  -3886,  -4572,  -5371,   1471,  -5253,  -3687,    285,   7671,  -2485,    897,  -6723,   3048,   6936,   5889,   4479, -17884,   1625,   1515,  -5887,  -2404,   1710,   3309,   2833,  -5300,  -5966,   -949,    715,  -2839, -10975,  -1777,  10610,   5011,   3394,   2653,    958,  -4331,  -6578,   1052,   6270,  -4307,  -4624,  -5834,  -6287,  -5005,   3868,  -3734,  -1302,  -3024, -10913,   -162,   -422,  -8559,  -4298,   1225,   1779,  -1417,   4790,  -3520,   4114,    106,  -6755,  -2205,  -9202,   1727,  -1791,  -2207,     17,   -430,   3313,  -6334,  -4953,  -9611,  -1738,  -7911,   1008,  -2600,  -1796,   -426,   2210,  -9444, -11719,  -2618,   2843,   -432,   5172,     19,   1488,   7226,    432,    -76,   2365,    996,   4190,   -671,  -6099,   1666,   3033,  10389,  -8389,   1199,   -723,   1051,  -2067,   2592,  -3437,   5377,   2619,   1330,  -3996,  -3450,   1373,  -8199,    462,  -3102,  -4229, -11790,  -6864,   1815,
		  4683,  -5161,  -4125,  -1425,    243,  -2816,  -3612,    703,  11850,  -5565,   6639,  -2896,    578,   2078,  -1055,  -3433,  -4143,   2025,  -5559,   9064,   -452,   2319,   3896,   -515,   1543,    943,    -35,  -4252,  -5567,   1891,   7430,   -668,   -246,  -2254,   1189,   4822,    822,   7347,    508,  -4615,  -3253,  13687,   6443,    500,  -3526,  -8241,   -603,   1900,  -3217,   6116,   7916,  -4622,    718,   3673,   7541, -10972,  -9362,   4533,   3766,  -7180,   5799,   1143,   1998,  -3508,  -7232,  -7413,  -5867,   3174,  -2413,  -4434,  -4389,   2327,    461,  -4735,  -2068,  -4222,   2485,  -1923,   4497,   -834,   3860,  -8985,   4839,   7156,  -7204,   6524,    188,   5969,   -973,   7917,  -3480,   3264,   4759,    233,   3746,  -2791,    263,   -402,  -5465,  -6217,  -1616,  -5867,   1104,  -6784,  -1408,   -532,   1698,   9507,   1198,   2123,     83,   4698,  -6732,  -4666,   6725,  -1086,   4532,   6363,  -4933,   4867,  -4060,   7557,   1667,    381,   1863,  -3814,   4869,   1403, -13760,  -3287, -10352,   5204,  13768,  -4932,  -6547,     59,  -4078,    986,  10393,  -2375,  -2241,    366,   7257,   9560,    379,  10601,   3353,  -5359,   5783,  -6464,   7507,  -8699,  -2994,  -4968,  -1166, -13398,   8153, -12481,    308,   6472,  -3056,  -4764,  -5671,   1461,  -1737,    465, -10179,  -4346,  -1798,  -3584,   9334,  -3563,  -1121,   7032,    685,   3693,  -3821,  -6040,   8833,   -452,  -3985,   1243,   4975,  -4312,    110,   5145,  -5368,   1659,   2933,  -1813,  -5583,   2912,   -875,  -1290,  -9570,   1083,   3044,  -3643,  -1143,   4151,   2984,   4325,   3337,   4920,  -2110,   2485,   7773,   3108,   1485,  -2228,   -982,   -679,    410,  -3245,   -860,   2361,  -4766,  -7997,   1263,   3929,   2323,  -6696,   5873,  -1166,   5053,  -4665,  -2938,  -2837,  -2312,  -4580,  -2379,   1120,   -677,  -1572,   3103,   3693,   1661,   5475,  -8598,  10023,    846,   5018,  -5838,  -7711,   9730,   1946,  -5132,   4694,  -2409,  -3145,  12143,  -4997,  -4158,   4898,   3738,  -6614,   -204,   1891,  -7773,  12977,   3743,   1845,    535,    777,  -6467,   2677,  -4203,   2488,   3437,  -4242,   -961,  -4473,   1696,   2466,  -7189,  -4877,   -933,   5314,  -7913,  -9694,   6570,  -6232, -19832,   7793,   3435,  22767,  -2823,  -9320,  -6274,  13248,   2812, -12166,  -3388,   -611,   2712,  -1818,   1139,   -776,  -7253,  -6457,  -8402,   6779,  -2115,   7801,  -3723,  -6326,  -2649,  -2341,   -473,  -1010,  -2862,   5577, -13269,  -4497,   4743,   4863,  10987,   3067,   3357,   9722,    344,  -3152,   6542,  -7496,  -4130,   -120,  -3727,   6619,  -1425,   7175,   4775,  -1674,   6417, -10035,  -4346,   -961,   1103,  -8135,   4467,    779,   1642,  -6139,   8089,  -2980,  -4279,   2888,  -5523,  -5585,   3562,  -4368,  -1387,  -1515, -10588,    463,   2219,  -2143,    184,  -3343,   6409,   1270,  -4450,   2899,  13676,  -8302,  -3608,   -526,  -2302,   3138,    242,   7493,  -2331,  -5032,    284,   2130,   1083,  -7721,   4352,  -8944,    933,   8619,   3712,  -9867,  -2506,   8241,    755,  -7916,   6970,  -1400,  -3812,  -6910,   -220,   6834,  -2223,  -7433,  -2484,  -1989,  -3193,  -6149,    561,  -3777,  -7925,   -190, -10090,    640,   3487,  -1891,  -2185,  -4694,   5684,    334,    911,  13736,  -3973,   -724,  -2076,   2025,   2346,   5312,  -3415,  -3968,  -4332,  -1665,  -4567,   -972,   -163,   1927,  -2953,   1459,   8282,  -7932,  -4128,  -2086,   3822,  -1548,  10685,   6228,   1665,   3366,  11902,   2965,   1499,   5579,   3941,  -1206,  -4936,   4834,    321,  -5017,  -3781,  -1554,   -821,    415,   5192,   2359,    858,  -4887,  -3212,    415,    995,  -5372,  -6113,  -5068,   5776,   -474,  -1666,  -3229,   1751,  -3386,  -6204,   2485,   1262,    367,  -2217,   1415,   9460,  -2412,  -7358,   7752,   2584,  -4583,   2777,  -9372,  -1898,   -152,    509, -17737,   -950,  -6403,   1489,  -6007,  -7868,    888,   3319,  -4493,   4758,  -2764,   5113,   2219,  -8919,  -1892,    780,  -6924,  -3634,  -4181,   5099,   8746,  -1599,  -2471,     55, -10870,  17330,  -2104,
		 -6073,   4998,   3411,   3534,   -974,   -957,   6957,    175,  11733,   9106,  -5836,    200,   -482,   9924,    -32,   1010,   5637,  -7817,  -5574,   4770, -10310,  -5772,   6033,    268,   -275,  -4861,   4625,  -5935,   3502,   2871,   9548, -10532,   5234,   1892,  -4355,  -3620, -11801,   3786,  -3793,  -1895,  -1132,  -7294,   -196,  -2011,    774,  -2868,   3351,   2381,   2360,   1593,  -8062,   3141, -12794,   -325,   6623,   -218,   4133,   -808,    687,  -1125,  -8666,   1971,   1076,  -2303,  -1719,  -3955,  -3351,  -6069,  -7038,   4387,   -585,  -5663,   -944,   3774,   4296,  -4039,   -298,   1324,   6967,  -6872,   -472,  -6139,  -6608,   1242,  -4266,  -1972,  -2970,  -4720,   4077,   5331,  -4211,  -8221,  -8571,   3659, -13242,  -9153,   6453,   2014,  -2197,   -960,   2423,   5329,  -8305,   2206,  -2522,    598,   3654,  12912,    341,   1169,   -922,   5453,  -5805,  11860,   7919,  -1396,   5106,  -1292,  -5203,  -1318,   2200,   5892,  -4809,   3601,  -1374,   -869,   3641,   -253, -11534, -21595,   4860,   1475,  -4239,   1705,  -3563,   8457,  -5909,  -1024,  -5318,    914,  -1327,  10441,  -2309,  -4908,  -4151,    567,   7237,  -3477,    -45,    395,   -898,   3501,  -2016,   3746,   2307,   6465,  19945,  -4110,  -6081,  -9091,   5460,   9413,   4586,  -2604,   4589,  -5378,   5508, -10358,  -3448,   9527,    -49,   -318,   3072,  -3517,   5269,  -8099,   -713, -10325,   1785,   3642,  -2178,  -2848,   4143, -11275,   2243,   4334,  -1788,   2504,  10264,  -2865,  -6005,    586,   3658,    799,  -2733,   4816,   3153,   3211,   7112,   -264,   4491,  12525,  -5717,   5070,  -6420,   2018,    394,  -6712,   -106,    985,   2048,  -2223,   1280,  -2888,  -1384,  -4261,   5937,   2367,  -7507,  10585,  12724,   -728,  -3392,    996,  -2172,   -134,   2483,  -5019,  -6949,  -1412,    241,   6701,  12785,   1958,  -5719,   2912,   4199,  -3919,   2223,   1553,  -2423,  10543,   2378,   4356, -11030,  -4984,  -6413,   7070,  -3715,   3152,    590,   1970,  -3860,    274,  -5051,  -6112,  12556,  -9151,  -2243,   2811,  -3655,   4566,   3983,  -6606,   -576,   5598,  -8170,  -3315,  -1553,  -5718,   3961,      8,  -8214,   3328,  -1649,   2663,   -333,   1204,  -5465,   2404,   4849,   1834,  11126,   8022, -16070,   5015,   9548,  -1979,    441,  -6390,   1569,  -4689,   3537,    -87,  -2821,   3087,  -4422,   1408,  -4902,   7389,  -3049,   1330, -12272, -10542,    213,   -487,  -1734,   7924,  -2119,    771,   -109,   3308,   1677,   5927,    453,   3387,   4768, -11772,   6539,  -3678,   -442,  -3741,  -3567,   2074,   8181,   -245,   -310,   2399,  -1745,   -305,  -8083,    514,   5167,    271,   5436,  -6782,  -3373,  -3602,   4808, -15542,   5411,  -5318,   -913,   5153,  -2708,  -4073,   3303,  -1927,   7086,   2594,    469,   3954,  -6734,   4878,   7733,  -1086,   7284,   -690,  -1209,  -2362,  -1934,    -48,   -924,  -1777,  11845,   5839,   1488,    970,  -9614,   -415,   1415,  -2601,   4131,   4841,  10722,  -3773,   -742,   7274,   5852,  11295,  -4524,  -4678,   -111,   3989,   -261,  -1247,   1063,   9311,  -8978,   7409,   1180,   -853,   5772,   3516,   2547,  -2126,   6317,  -2996,    931,   5062,   -146,   2676,   3775,  -2121,  -1751,   7767,  -3130,  -6234,   3521,   1053,  -7453,  -2560, -17455,  -1270,   6332,   2070,  -7010,  -1895,  -1366,  -4543,   2536,   5555,   3861,   1872,   -473,   1057,  -2122,  -1032,   7853,  -4535,  -5150,   3555,  -6318,   7285, -13862,  -5758,   3645,  -2073,   6352, -10709,   8398,   6303,   2950,   3905,  -2633,  -2709,   4488,   -777,  -7470,   2502,   -369,  -3703,   3229, -12151,  -7298, -10961,   1059,   9595,  -5335,   2524,  -5071,   2009,  11256,   2527,  -6227,  -1447,   5336,  -4092,  -5813,  -1418,    910,   5214,   8437,   6329,   2707,  -6319,  -5855,  -6590,  -8012,   -895,  -1992,   -237,    -97,   -196,   1069,  -5075,    172,    191,  -3452,   1329,   1274,  -1335,   9605,  -2017,  -4970,  -2582,    717,   2312,   1535,  -4457,   9745,   -139,   1160,   4322,  -8963,  -5012,  -9339,   7644,  -4606,   8243,  -9463,  -3180,
		  6226,   3933,  -1695,  -1646,   5785,  -3597,   3334,  -5266,   7814,   3994, -12968,   8332,  11327,  -9356,  -4795,    812,  -1985,  -4632,   4609,   2156,  -3018,  -1127,   2734,  -5742,   9179,  -1938,  -5126,  -6380,  -9985,   3485,    410,  -2136,   1404,   2189,    910,  -1007,  -1228,  -9658,   -660, -11036,   3354,  -5233,    276,    345,   9693,   2069,    989,   2390,   5534,   -950,  -2429,   3188,    866,   3070,   1984,   4351,  -9838, -11221,  -6859,  -5763,   -444,   7127,   2600,   2246,  -2179, -12250,    574, -12724,   2696,   1111,   2768,  11944,   -777,  -2733,   4714,   4816,  -4215,  -3301,   5007,   1215,  -8645,  -7009,   3704,   1446,   1578,  -1911,  -3829,  -4203,  -3924,  13461,  -5500,   2153,   6743,  -2189,   3306,  -4642,   1138,  -8351,   1031,   1587,   4173,   1799,  -8442,  -1211,  -4863,   -460,  10573,  -1193,  -5209,   3546,   3930,   6089,   7618,  -1620,  -6437,  -8161,  -2961,   6002,  11045,  -1524,   1722, -18034,  -1960,   4966,  -1766,  -3194,   4544,  -2074,   1248,  -6241,   7330, -13285,   9766,  -1940,   5468,     23,    566,  -5142,    510,   5486,  -6580,  -6642,  -5436,   2939,   6584,   7097,   -472,  13281,    856,   3024,   7026,   4630,    -94,   1824,   3186,   -192,   9583,   2880,   1089,   7629,   1565,   2668,   2347,   4421,  -4659,   2486,   5653,   2310,   9503,  -3193,   -621,    304,   2329,    792,   1359,    -19,    222,   2021,  -1842,   4353,   2639,     40,   9858,  -3917,  11948,   7928,   5632,  -4239,    703,  -4184,  -1821,    -77,   2197,  -5138,   -939,  -2093,  -5610,  -1423,   2661,    -55,  -4117,   3743,  14979,  -2580,   2600,   6757,  -2511,  -2433,  -2047,   -678,     39,  -1919,  -1162,   -886,  -2838,  -1026,   4807,   4190,   7788,    471,   3735,   3231,   8903,   2360,   2429,  -4359,  -4132,  -1507,   5009,    394,   4399,  -2911,   -321,   6094,   6080,  -4329,    823,  -4891,  -4832,   2825,   3724,  12963,  -3609,  -1469,   9373,    212,   5068,   2035,  -1880,  -3580,   5338,   -453,   1158,   2103,  -1137,   4297,   2536,  -5168,   6508, -12766,   2769,  -1097,   8926,   7392,   8718,  -1146,   1062,   3409,  -2885,  -1485,   2878,  -5678,   5164,   1537,  -4747,    814,    729,  -1372,    709,  -1482,   4275,   7144, -18863,    914,  11060,  -3996,  -8267,  12437,   2207,  -4707,  -3764,  -4527,  -3714,  -4327,   3412,  -9234,  -9307,   -104,  -2171,  -5631,  -2410,  -3304,   -552,   5868,  -5083,  -3600,   5855,   2153,   1302,  -4946,    -22,   6113,  -6996,   5252,   5322, -12355,   -717,   2611,  12139,   1820,   1723,  -3936,  -5139,   -211,  -4085,   2660,   -877,  -8911,  -3627,  -1870,  13879,  -6055,  -7272,    866,  10752,   3861,  -3864, -10746,   1861,  -8843,  -4689,  -3585,    747,  -7055,   6213,   4723,      3,    523,   -189,   2974,   -315,  -5094,   1324,   6342,     35,  -3687,   4872,   4778,   4419,   6500,  -6585,   6253,   3027,  -2622,   7746,   2967,   2440,  -4647,   8124,   -786,   2414,   -268,   2388,   -757,   6657,  -5489,  -1894,    441,   5583,  -7865,   -383,  -1523,  -8781,  -1285,  -1781,   3551,  16666,  -5291,   4942,  -1579,  -4225,   -594,   9360,    617,   -515,   3946,  -1822,    867,  -4489,  -2101,  -2101,   2258,   5868,  -8419,   7176,    918,  -1434,   6123,  -9448,    -65,   6869,   4586,  -3633,  -2747,  18821,  -5943,  -2582,   5611,  -2356,  -2112,   4936,   1847,  -2799,  -3031,  -4959,  -4740,  -5749,   1612,  -4200,   -418,    966,    383,   6718,   2172,  -1543,  -1794,  -4344,   2781,  -2170, -11114,   8011,  -7134,  -1772,  -1065,  -1328,   7507,  -1743,   6780,  -1781,  -3781,   -478,  -3115,  -1352,   2941,   3737,    401,  -7031,   -204,  -3422,   6906,   2563,   3388,   -326,    679,   1032,   6622,   2983,   -726,   4658,   1846,  -3348,  -9629,    151,  -4768,   2035,  -2509,   9049,   9114,  -3690,   1194,   2799,  -3640,    433,  -2966,   1998,   2165,  -4393,    -92,  -3007,  10545,   1153,  -6154,   5417,   -157,   3171,   9492,   7098,  -1002,  -5901,   -355,  -2790,  -4376,  -4402,   2490,  -8276,  -4255,   5088,  -2269,   2070,   -178,  -7333, -11188,
		 -5301,   5393,  11398,   3923,  -7796,   1885,  -7738,  -5980,    363,  -1294,   1292,    974,   7049,   8245,   1668,  -9685,  -8785,   3106,   -266,  -2546,  -1350,   6647,   1112,   -480,   3547,   2298,  -6806,  -1838,   8202,   1010,   6917,  -1330,   -888,  -5351,    615,     56,   -419,   3843,  -7845,    984,  -3270,     35,  -6026,   3216,   1682,    581,   4746,   6480,   3463,   7325,  10699,  -4095,  -4525,    467,  -1071,   4039,  -3092,  -3472,  14805,   -101,  -3396,  -2502,  -1857,   -577,   -561,   -881,    257,   3608,   2842,   1887,   5815,   6380,    866,  -4839,   3108,   -772,  -1434,  -6097,   3229,   4893,  -4085,  -1570, -11425,  -2555,   -299,   2040,  -5635,   5295,   -745,   1416, -10179,   8870,   2864, -11906,   2869,   5289,   3620,  -3270,  -1175,   -711,  -6350,   4463,   3333,  -2710, -12592,  -3498,  -1505,  -1672,   2970,   2990,    961,  -2461,  -3670,  -3327,   2921,  -2624,   9225,  -1551,  -3767,  -3352,  -8697,   7176,    437,   1004,   2680,  -2135,  -1731,  -6097, -11501,    789, -13352,    174,   5127,   -738,  -5180,   2791,   1871,   3058,   4675,   4112,  -2115,  -2190,    771,   4321,   -950,  -5275,  -2845,  -2140,   4714,    410,   2826,  -9277,   -663,  -8730,   7274,  10265,   4835,     95,   5336,   5864,  -4454,   8330,   5534,   1249,   7044,   2489,    504,  -2423,  -3371,  -5820,   1057,   3075,    330,  -6537,   1300,    836,  -5153,  -2311,    147,   1775,  -4167,   2890,  -6440,  -1446,   4405,   3628,  -3033,   -572,   2024,   5065,  -1974,   -345,   -418,   5333,    -54,   -796,  -4722,   1876,  -2456,   2948,    105,  -7466,   -477, -10384,  -3110,   -927,  -7062,   4362,  -1247,  -1509,   -298,  -3716,   -421,   1717,  -1154,     -3, -12065,   2532,   5405,   4147,  -3546,    362,    471,  -5049,   -489,   2898,    -22,    -98,   -223,   1986,    805,  -1770,   7049,  -6858,    875,   4445,  -4590,   -469,   3638,    833,  -1613,   2775,   1677,  -2187,   2134,    452,   3741,  -1587,  -5507,    664,   3176,   1945,   2848,  -3741,   4787,   2656,  -4901,   3554,   7157,    376,  -2095,  -5188,  -2313,   2197,   2014,    -51,  -6405,  -1648,  -1495,   1491,  -2861,  -3404,    813,     53,  -6143,  -5608,   1070,   3015,   1875,   4384,   -832,   6318,  13896,   5324,  -4709,   3641,   -986, -15383,   4292,   9362,  -3981,   2241,   2064,   4330,  -4383,   5713,   6105,   2622,  -1656,   -291,  -1531,   1103,  -1788,   2340,    565,   5648,  -3568,  -4706,   1907,   3525,  -7421,    -45,   2136,  -4423,   4042,   5377,  -6861,   2724,   1189,    752,   1309,  -3547,   4100,  -1396,  -1124,   3673,  -1659,   9236,   8454,   6045, -11228,  -8491,   1420,  -2125,  -7431,  -9137,   4777,  -3065,   2967,  -1093,  -2558,   7218,   1626,   3326,   3055,  -3082,    510,   2603,   2068,   -237,   5719,   8491,  -6499,  -9878,   6174,  10929,   -449,   6357,   2236,   5110,   5431,  -1442,  -7935,  -3794,   -953,  -5317,  -8560,   1693,   1617,  -1235,   4096,   -811,   2595,   4495,  -4653,   2066,   6581,    752,   -960,  -4023,    745,   1256,   -553,  -4975,   2142,  -4763,   3043,  -4759,  -2364,  -5428,   -533,   -446,   6697,  -4506,  -7489,   -198,   6537,   3881,    708, -10389,  -9463,  -7209,   1125,  -5066,   5777,    456,   6004,   4938, -10683,   8824,  -4971, -10213,   1668,  -6769,   2382,  10607,   -747,   3250,   2796,  -1333,   4914,   2366,   3980,   2176,  -7902,   4080,   5155,   1364,  -3228,    706,    437,   -521,  -3233,  -4861,  19090,  -6144,   -857,    764,  -2920,   4156,  -8349,   -803,   1301,   4153,    779,   6965,   4385,   2952,  -7235,   3632,  -3396,  -1393,  -2054,  -6707,  -2021,   -411,   3688,   5101,   8360,  -1127,   -555,   -717,   2356,   3760,   2298,  12969,   4820,   3460,   4457,   1523,  -5102,  -4430,  -4819, -11251,  -8950,   6381,   4067,  -1507,  -4360,  -1045,    931,  -1042,    574,    -74,   1007,  -4419,    355,    454,  -6683,  -1667,   1263,   6038,   2956,   3562,    961,  -2719,   4931,  -5231,  -1577,   1079,   -383,   5937,   4911,   2144,  10020,   8835,   4076,   -805,   2739,  -2886,  -2222,  -4522,
		    21,   6272,  -4241,   3505,  -7992,   1333,  -6860,  -2508,   -271,  13473,  -1004,   -697,   6549,  -4563,  -6373,   7448,    675,   -507,   2782,   7480,   3832,  -3847,    112,  -1752,  -7038,   1737,   8549,   4039,  -8184,   1287,   4048,   6078,   8554,   1509,  -1918,   -210,  -3951,   1764,  -5951,  -5695,  -1517,    605,   3185,  -9837,  -8874,   2989,   1445,  -6979,  -1013,    261,    901,   -956,   3745,   8356,    351,   6499,   -118,   -233,  -3739,   3276,  -3442,  -7014,  -4166,  -5351,  -5305,  -3794,    207,  -6649,  -4522,   -327,  -1079,  -2461,   -391,    545, -14335,  -2039,   4691,   3895,   2531,   3617,  -3067,   3182,   3760,  -2621,  10489,   1856,   4354,  11257,  -6976,    -93,   8541,   1572,   6026,  -3152,    292,    302,  -4020,   4424,  -3184,  -7620, -12047,    883,   5952,   1509,   2298,  -1584,  -8684,   -974,   4120,   3552, -10170, -10267,   3448,    771,  -1570,  -3646,  -4986,  -5032,   -438,   2724,   2340,   2227,    809,   1767,  -1547,    985,    182,    128,  -3192,  -8730,  -5725,  -6993,  -5692,  -1896,  -1917,  -4214,   2469,   4306,  -6240,   6985,   9427,  -4503,  -4879,   6339,    201,   -441,   7024,  -3479,   6620,   4706,  -1030,  -1897, -10119,  -9782,   5581,   2921,  16379,  -4900,   3186,   4713,    121,   -974,  -5985,  -1563,   1168,    658,  -3350,  -1021,  -3705,  -3014,   3822,    501,   3365,    617,  -2004,  -5483,  -3559,    180,   -901,  -8149,     63,    387,    492,   8642,   5012,    201,   9064,   4023,  -8317,  -7309,   -159,   3779,   2281,   -354,  -2427,   7302,  -4158,  -7102,    346, -10112,  -4172,   5093,   7798,   5727,   2188,  -7457,   -192,   1441,   1159,   1647,  -1630,  -1463,   -793,    476,   2254,  -1283,  -5419,  -1117,   -541,  -4483,   3807,  -5142, -15232,   8145,   -349,  -1225,   -746,  -1339,  -4802,   2809,  -3123,   4975,  -4721,    600,   2772,  -1461,  -1090,  -2181,  -7660,  -4431,   -323,   2555,  -6644,  -4829,  -5214,   1759,  -7617,  -8002,   -156,  -2271,  -5337,  -8864,  -2929,   1704,    181,   -465,  -2901,  -1109,    556,   7680,   2531,  -4649,  -9663,  -2645,  -2704,    555,   5522,   -824,  -3668,  -3765,  -1326,   2562,   5203,   -739,     28,  -1560,   5618,   -605,     73,   -763,  -4354,   6540,  -7012,   3810,  -6305,    906,   2843,     36,  -1166,  10811,  -2840,  -1014,  -6424,  -1185,   1042,   5336,  -3197,  -3067,   5222,   1918,  -6663,  -6257,   5914,   -102,   4905,   3292,    876,   1627,   3671,   3328,  -1274,  -5003,  -3758,  -6668,    671,   1528, -11580,  -3811,  -3275,   9888,   5776,  -2743,  -3563,   7372, -13742,   7797,   -534,   3727,  -4343,   4062,   2247,  -3713,    -13,   3635,   7027,  -1701,  -5661,   -638,   6254,    439,  -4912,  -1580,  -5461,    564,  -1666,   1722,   3495,   4433,  -4825,   4784,  -4347,  -1981,  -9533,   5455,  -7206,  -1948,   2098,   2481,    762,   2863,   4361,    -67,  -2911,   2181,  -9033,   3812,    311,  -2207,   -733,    588,  -4302,   5035,   -153,   -691,    797,  -2583,   1096,    303,   4038,   3279, -13255,   -764,  -1996,   -335,  -6550,   2506,   6305,  -5686,   9784,  -5704,  -1712,  11391,   8815,   5464,   -699,  -7030,   3292,   3010,  -8841,    748,  -9052,  -3474,   5278,   1483,   -546,   -995,  -4786,   1904,  -5113,   1573,   7604,  -7086,  -5790,   4375, -10638,   1020,  -3237,   2753,   4243,  -5355,    535,  -6928,  -6053,    910,   1449,   4067,    365,   7957,  -4168,   -981,    -26,  -2168,    386,   1868,  -1723,  -8768,   1019,   5568,   7608,  -2524,   1702,   3339,    990,  -2148,  -3311,   1863,  -7976,   8715,  -1531,   1866,  -2128,  -2624,   2463,   2267,   4478,   4317,  -8581,   3019,  -3161, -11945,  -4481,    255,   1031,    167,  -1618,  -5226,   7553,   3754,   1178,   -422,   3270,    429,   1715,   -389,    597,   -477,  -2899,    373,   8815,    288,   1869,   -728,  -2596,   2302,    910,   4363,   5418,   -280,    541,  -5543,  -7169,   2068,   4470, -11419,   2556,    904,   1460,     38,   -320,  -3975, -12216,  -9062,   2419,  -7994,  -3956,   5180,  -3199,  -2681,   -528,   4452,    485,   6914,
		  7174,   4363,  -3057,  -6635,    880,   6274,  13726,  -7968,   2851,  -3579,   -533,  -3902,  -3977,  -5922,   8417,  -3248,  -4393,   6960,   3498,   9348,   6989,   -632,  -4706,    -68,  -4084,  -1578,   -212,   -265,   4388,   -351,  -6940,   2397,   1870,   -485,  -4472,   -585,  -2686, -12835,  -9053,   5429,   1362,   -112,   6480,   5555,  13174,    686,   8210,   3451,  -3689,  -9103,   1614,   7311,   7700,  10564,  -3684,    634,   2218,   3887,   3266,  -4090,  -3143,  -4805,   5945,  -2539,     79,  -3049,  -8108,    895,    554,   3594,  -8885,   4773,    854,   -119,  -3480,   5927,   2831,  -1365,  -1011,  -6667,   4440,   2109,   1532,   2369,   -558,   1266,  -3167,  -1390,   1930,  -7080,  -9458,  -2763,  -4029,  -4185,  14234,  -3924,    717, -12908,   2184,  12662,   3813,  -1451,  -7031,   -847,   4709,   6648,  11385,  -4851,   4221,  -5788,   3833,   2386,    471,   1240,  -9654,  -3633,  -3594,  -5249,   1649,  -4655,   4776,   3418,   1792,   2020,   2440,    781,   1078,     77,  13002,  -2723,  -9461,   -456,  -7556,   2157,   2915,  -1156,  -1188,   -834,   2479,   3801,   1337,   3972,   2732,  -1564,  -7012,   8857,  -2723,   4122,   9685,   3148,   6784,   1864,  12056,  -2998,  11933,  -1579,  -4336,  -1123,   7344,  -2625,   1713,    385, -14685,   1138,   1067,   8439,  -3109,    -78,  -8933,   -806,  11574,   5479,   3779,   -171,    734,   -482,   1324, -10617,   -602,   5678,   9365,  -1200,   9340,  -1311,   -672,   1717,  11120,   -216,  -4995,   -165,  -6778,  -1097,   2875,  -1834,  13286,    -51,  10883,   3868,  -9685,   4289,  -2462,   5313,   1686,   6110,  -7392,   2156,  -2853,   -342,  -1208,   -141,  -2421,   1520,  -1656,  -1864,   2974,    290,   2571,   2573,  -8716,   5548,  12438,   1914,  -7556,  -4738,  -8937,   2339, -13415,  -1156,   -124,   -870,  -2610,    724,   8752,  -5619,   4209,  -5050,    329,  -4638,    686,  -4417,  15672,   3835,   -834,  -9486,   1787,  -6197,   2682,  -2184,   -302,   -848,  -8875,   1684,   1113, -10989,    248,  -1967,  -4792,   5990,  -7838,   -833,   4346,   4901,   3383,  -4781,  -9196,   4421,    564,   2064,  -8596,   2816,  -1125,  -2787,  -3530,  -6562,   3864,  -3429,  -4840,  -1911,  -3051,   -229,   6913,   -399,  -7699,   8371,   3347, -22630,  -6694,  -8870,   5316,   1832,   5543,  -4947,  -2314,   3636,    933,  -6647,  -9959,   4957,   2978,  -9755,  11723,  -4086,   -213,  -1878,  -6597,   2585,   -876,  -4100,  -3002,  -1360,   2916,  -1888,  -9751,   -795,   3793, -10134,  -1479,  -6047,   1981,  -2179,   3175,   6076,  -8426,   8942,  -3636,   1365,    608,   1433,   9518,    294,    -71,  -1332,   4747,   5816, -11270,   3829,  -2034,   -646,   -305,  -2661,    579,  -1146,  -2082,    374,   1978,  -6297,   2458,   5765,  -3160,  -2485,  -5505,   -881,  -9351,  -1695,   7994,   1001,  -2373,  -2324,   6388,  -1806,  -2875,  -5296,   4731,   5154,  -1948,   1460,  -3558,     99,  -1957,   -169, -10441,  -6020,   2213,    587,   1332,  -1736,    733, -11161,  -5736,   7472,   1481,  -1278,  -8054,  -3392,  -9512, -10131, -16997,    974,    524,   8679,   6997,    190,  -5894,    552,   5438,   2581,  -9418,   2651,  -2550,  -2445,  -6088,  -2040, -11850,   4576,  -1393,  -9773,  -9354,   2383,   5113,   1386, -11469, -12407,   2462,   -347,   1182,  -4552,  -7944,   2427,  -3132,  -3384,  -6857,  -7088,  -2342,   3011,  -9491,  -3833,  -3395,   4533,   -772,   6780,   7086,    176,  -1296,   6726,  -2332,   2821,  -2044,   2227,   1866,   4815,  -2428,   8067,   5523,  -3997,   5107,  -4803,   3426,    994, -12200,    786,  11047,   1337,  -3851,   5782,   9821,  -4797,   3037,  -4594,   7260,  -4961,   5336,  -6140,   1644,   1935,   -890,   1426,   -293,  -4257,  -9352,  -2120,   2428,   -755,  -4532,   6655,   5624,   1922,   8699, -11488,  -1792,   5172,  -5722,  -4748,  -5243,   4861,  -2554,   2265,   4523,   1941,  -1396,   3007,  -5578,  -5042,  -2259,    314,   4033,   -724,  -2982,   2261,   -496,    588,  -3894,   -633,  -5967,  -5561,  -1164,    746,    960,  -5994,  -3183,   6088,    237,   2224,
		  2098,   -578,   3515,   7137,  13066,  -3254,    404,  -5094,   5006,  10296,   6832,   -488,   1077,   3096,   8256,   1676,     31,  -9646,   7186,   4391,  -3145,   4722,  -1636,   -846,  -2853,   4217,  -1221, -13104,   5917,     27,   2326,   2197,    596,   6811,    602,   -799,   2610,   4637,   3651,    706,   2648, -10671,  -2388,  -3456,   8626,   1436,  -5774,  -3499,  -3595,   4833,   4128,  11636,   2342,  -2791,   2601,  -2912,   2237,   2319,  -4815,   5850,    965,  -2888,   1448,  -4048,   4095,   -957,  -1318, -17862,  -2746,   4168,   4252,   3540,  -9517,   -327,   1145,  -1382,   -962,    805,   -188,   7353,   4552,   3702,   1736,   5158,  -1623,   8144,    187, -15227,   9964, -15772,   6939,   2197,   8721,  -3883,  -6776,  -6027,   1891,   1937,  -1090,   2190,   1934,   4508,   7363,  -4673,   2387,  -9091,  -1598,   2634,  -2240,    894,  -7306,   2191,  -1140,   2085,   -593,   -515,   2847,   -794,  -5881,   4133,  -6868,  -4561,   3507,     37,   8537,  -4197,   2340,  -3318,   5359, -13454,   5909,   6889,  -6358,  -3538, -16456,   9688,  -3947,  -2346,  -2494,    916,   4279,   6357,  -1050,  -1357,  -1573,    592,   -717,   6907,  -1511,  -2587,   -159,   3369,   2183,  -2184,    664,  -7492,   6045, -20266,  -6369,   6117,   3687,   8512,  -5926,  -1927,  -6021,  -4408,   4083,  -3831,    794,  -4255,   7288,  -6266,  -7546,   2009,     -5,   -451,  -4365, -10948,   8597,   7960,   4292,   1424,  -4493,    827,  -2706,  -5520,  -4506,   7879,   4148,    868,   7058,   2822,    216,   4514,  -1418,   4610,   8527,   3448,   2358,   4943,  13307,  -1113, -17518,  -1174,   2723,  -3187,   4160,   5358,   1452,   2899,   1127,   1280,    985,   1250,   -433,  -2634,  -7463,   1447,  -2111,  -4487, -11691,  -6054,   2622,  -9109,   -830,    597,   -564,  -8084,   2146,    843,   1420,    992,   2195,  -4059,   6925,  -3409,  -2908,   2469,  -2199,  -3645,     79,   -221,  -1172,  -1223,   -773,   3028,  -3740,   5141,  -2122,  -4899,   1813,  -2390,  -4309,  -7229,  -2811,   2011,    682,   -838,  -5914,   1486,   -826,   1512,   -690,  12910,   5254,  -3701,   4039,    257,   1779,    170,   8748,   2140,    595,  -2656,  -5260,   2660,   3588,   5418,  -1217,   7262,  -1032, -12506,    844,  10234,   4527,   -263,   1751,   4493,   4336,   -846,   5368,  -1098,   4554,  -3783,   -404,  -8585,     69,   1166,    202,  -4736,   6234,  -8576,   8121,   2460,   4099,    438,   -577,   3756,  -2080,   6991,   6053,   9685,   4556,   1127,   2076,    -21,  -4767,  -1289,  -1916,   2856,   -626,  -3435,   1216,   1427,  -4602,    112,    708,  -2864,   2538,  -1720,   2497,  -1037,   9773,   2787,   3332,   5195,   2434,  -2103,   2287,   3496,  -8522,   1323,   3823,  -5599,  -3280,   7424,  -3015,   -212,   4146,   2289,   3793,   2582,  -2676,    924,  -1398,  -8533,   1345,  -6664,  -5675,   7690,   2187,   1373,  -2077, -10459,    363,    177,   2643,  11752,   1786,   2535,  -3490, -11191,   3512,  -2692,   2558,  -9150,     68,   4126, -11504,   1384,  -1976,   5768,  -4865,  -3731,   4508,  -2512,  -5047,  -5322,   1757,   4736,   1542,   8120,  -1687,  -4816,  -4990,    343,  -2509,   2268,   6229,  -4439,  -1715,  -1539,  -6023,  -6199,   5819,   2661,    791,   4610,   -968,  -1560,  -3290,  -1561,   6011,   1218,  10100,   4004,  -3300,   6019,  -2792,  -4237,  -1261,   8660,   3410,   5712,    944,   3917,  -1098,  -4336,  10058,  -3943,  -1137,   2094,   2564,   6347,  -1260,   8326,  -4030,  -2205,  -8642,   6203,  -4437,  -3774,  -2090,  -4258,    211,   2227,  -6044,  -1890,    438,  -7241,  -4458,    767,  -4366,   3121,  -7817,  15383,   -512,  -2484,   3809,  -7998,    783,   3567,     -2,  -3840,  -2852,   1349,    491,   5302,  -1319,   3034,  -4345,  -5442,   7926,   4757,   1554,   1585,   2308,   3590,   -206,  -2328,    608,  -6044,     57,  -6147,   -401,  -3070,  -1901,   4615,   5104,  -5921,   4846,   3841,   2091,   1317,  -1637,   3664,   6398,   8380,  -1447,  -2471,   2937,   -984,   4242,  -3370,  -6031,   7983,  -2298,   1547,  -2329,   -932,   3114,   4068};

	const static Filter<int16_t> l3_a_compress_filter(l3_a_compress_filter_element, -23, {1, 1, 64, 64});
	const Filter<int16_t> *get_l3_a_compress_filter()
	{
		return &l3_a_compress_filter;
	}

	const static __attribute__((aligned(16))) int16_t l3_a_compress_bias_element[] = {
		   215,  -1574,    518,    725,   -113,   3839,   2126,   -403,   2584,    873,  -1265,   1800,   1399,   2759,  -1126,   1811,   1750,  -3171,   2377,    -57,    517,   -101,    100,   3779,  -1848,   3651,  -1540,   2289,   -934,   -251,  -1079,    212,   1856,    -60,   -875,    -50,  -1546,  -2828,   -371,  -2100,   2120,  -2422,   -216,   1841,   3027,    241,   1071,  -1473,   3295,   -100,    586,  -1382,   -525,   1474,    376,    424,  -1381,   1694,   2347,   1726,  -2005,    972,  -1004,  -1455};

	const static Bias<int16_t> l3_a_compress_bias(l3_a_compress_bias_element, -12, {64,});
	const Bias<int16_t> *get_l3_a_compress_bias()
	{
		return &l3_a_compress_bias;
	}

	const static __attribute__((aligned(16))) int16_t l3_b_depth_filter_element[] = {
		  6583,  -8431,   -510,  -5443,  -5627,   -608, -10144,  -2165,   -260,  -1780,   6962, -10390,   9360,   1686,  10816,  -5733, -16272,   3553,  -1722,  -4201,   7054,   5766,  -6769,  -7861,   1066, -13914,  -1115,   5891, -10234,   -667,   -871,   5739,  -1403, -16581,  -5910,    706,   1146,  -7506,  -3973,   4406,  -6751,  -6754,  -9423,  -1203,    347,   6884,  -1898,  12563,  -4196,   5712,  -9969,   4962,  11135,   4129,  14875,   7077,    352, -15972,   5779,  12004,  -1782,  -2376,  -4809,  -3576,  -6343,  -3791,   4047,   6531,   1167,   5433,  10950,   5586,    335,   -242,   3494,  -9430,  -2350,  -2297,   9379,   3551,   1912,    369,   8657,  -7227,  10327,   7814,  -6562,   3119,   6022, -10126,  10898,   5597, -12672,  -9489,   4597,   4653,   7450,  -2060,   -907,  -8459,    649,   5308, -10924, -16563,   6103,   4495,   -282,   3850,  -6522,   3556,     14,     45,   1677,  20470,   1024,    460,   2391,  -5594,  -1871,   8112,  -6289,  -1676,  -2629,  13706,   -796,  -8637,  -5335,  11192,  -5165,   -245,   1671,   3475,   4275,  13179,   1109,   2189,  12353, -15518,   1114,  -3638,  -5868,  -5642,  -1774,  -5750,   1515,   6730,   -970,   2314,   -503,   2787,  -6792,  21520,   -521,   4224,   3513,   1456, -10871,   4475,  -2012,   7919, -14207,   5084,  -6490,   1374,     91,  -1729,  11902,   -322,    904,  -7928,   9412,   6512,  -1285,   1523,  -3201,  -3229,   6037,   8117,   6760,   1207,  13402,  -8235,   6133,   6695,   1610,   2584,   6961,   3018,   3908,   5103,  -8682,  -2816,   1482,  11680,  11138, -14160,  -3351,  10175,   -759,  -7668,   1675,   5508,   6969, -20237,  17933, -12718,   7885,   3287,   8313,  11309,  12405,  -2196,  -4989,   3160,   4392,  -4307,  -5099,   2361,   1832,   5060, -11612,   -555,  -3660,  -1095,  12701,   7212,    463,  -7797,   1881,   8614,   1660, -12326,  11700,  -3279,   1084,  12893,   3622,   6657,  -7715,  11240,   2013,   1463,   2180,   9733,  -2684,   5019,  -3819,  -1046,   8676,   5423,   2070,  -1602,   -991,   1363,   1020,   4525,  -4483,     -3,   1576,  -4021,  -4943,   1148,  -6618, -13217,   1177, -17990,   2605,  19039,  -7823,   1369,   3581,   4738,   4354, -10271,   1247,  -2986,    183, -12644,  11490,  -7073,   3055, -24338,    561,   2979,   -248,   6789,  -3880,   5771,  -5480,  -7198,  11060,   2062,  -2753,  -2298, -20228, -18600, -12361,  11769,   2255,  -1557,  18779,   2172,  -4879, -10488,  -4068,  -7982,  -2515,  -7245, -11603, -11682,   4967,   3688,   -956,   3213,  -3763,   5912,      2,  14408,  -2614,   6074,   1385,  -1490,   1939,  -3013,   3357,     50,   -253,    139,  -1383,   8285,   6628,   6783,   -726,   -211,   1323,    369,   1664,  11905,   2188,  -1610,  -4429,  -3441,   8905,   8839, -16182,  -6755,  11441,   9100,   4557,    991,   8435,   8136,   4007,   5403,   4351,   2294,   -655,  -3920,  -7856,   1846,   2118,  -6207, -16640,  -2920,  -1079,  -8677, -13117, -11370,   4238,  -7893,  -2471,  15401,    823,   1300,  -7196,   2388,  -4500,   6276,   7378,  -1620,   1228,   1276,   3214,   2241,   9587,  -2266,  -5389,    652,   -708,  -7342,   3699,   6093,   1232,    648,   -613,   5624,  12188,  -7040,   -893,   4582,   3729,   4925,  -6772,   2509,  -3089,  -3833,  -2253,  -3184,   5673,   3763,  -1818,   2430, -11450, -11550, -11867,   8094,    543,  -9226,   1201,   1382,  20389,   -823,   9705,   3500,   3719,   -188,   1688,   2077,  -4417,    159,  -1678,  -5596,   -136,   5599,   8026,   1535,   6985,  -4851,  -5525,   -584,    470,   -710,   2413,  -4140,   3176, -14952,  -8212,   9053,  -6458,   5185,  -3601, -11565,  -4852,   5264,   8076,   9235,   -927,   6238,  -9264,   -962,   6197,  14204,   7850,   6922,  13942,  -5544,  -6064,  -7930,    507,   3722,    812,  -2081,  11843, -10107,   5463,   -239,   5000,   6789,   1910,   9891,   4506,   9972,  -8085,   3743,   2907,  -9164,   7010,   -197,   2461,  -5024,  -4096, -20436,   -910,   3943,   3980,   2202,   4784,   2643,  -8594,  -3282,   8438,  -2392,  -1379,   3694,   -918,   4176,   4179,  -1651,  -1321,   3427,   2683,   2000,
		 -6837,  11627,  -8993,  17855,  -3841,  -1969,   2516,  12185,  19183,  -8438,  -5808,  -7755, -13868,  10114,   7837,   2073,   1920,    652,  -2706,   3725,   1156,   2657,  -2591,   3091,   9646,   6261,  -3568,   6546,  -2554,  -1235,  -6121,  -5576,   4158,  -7727,   4202,  -1340,  -4834,    466,  -3243,   -640,   1651,  -1778,  -2713,   8866,  -8440,    730,   -819,  -5511,   -454,  -5232,  12008,  15619,   7763,  -4128,  -3184,   6683,  -8086,  16913,   -510,   6539,  -4375,  -8172,   1325,  11769};

	const static Filter<int16_t> l3_b_depth_filter(l3_b_depth_filter_element, -14, {3, 3, 64, 1});
	const Filter<int16_t> *get_l3_b_depth_filter()
	{
		return &l3_b_depth_filter;
	}

	const static ReLU<int16_t> l3_b_depth_relu(RELU);
	const ReLU<int16_t> *get_l3_b_depth_relu()
	{
		return &l3_b_depth_relu;
	}

	const static __attribute__((aligned(16))) int16_t l3_b_compress_filter_element[] = {
		  1778,  -1185,   2311,  -2445,  -3372,   1313,  -8440,   2642,   2768,   4765,  14309,   -742,   3183,   3450,  -1682,  -1761,  10115,   3111,   4506,   7454,  -3388,   1357,   -117,  -1490,  -2063,   5766,    535,   3739,   5279,  -1139,   -501,    809,  -3270,   7907,   5490,  -5699,   4477,   2433,  -1599,  -7938,    -25,  -3603,   -110,  -1987,  -1060,  -1461,   -608,  -2199,  -6140,  -6815,   9624,   1729,   7851,   3647,  -2441,   1786,   3344,   -525,   1984,  -9067,  -4019,    915,    764,   3799,   5066,  -3619,    -30,  -6389,   3937,   9586,  -3024,  -1198,   8639,    156,  -1257,   4622,  -7896,   3902,   4396,   1282,    284,    942,   7071,    879,   2519,  -1164,  -2671,  -7450,   5404,  -1013,   7280,  11663,  -1782,   7721,  -1080,    109,   1395,   7352,   4319,   6317,   -660,   2196,  -2369,    768,   9043,   1287,   7992,   6007,  -8123,  -3197,   1324,   3759,  -5045,  -4725,   5949,   2927,   5985,   5182,   2420,  -2042,   2503,   2957,  -9101,    458,  -3988,  -2791,   4451,  -1400,  -2424,  -1390,  -3250,   1093,   -753,   1565,   3142,  -7350,   9983,    331,  -3986,  -6170,   2483,   1113,  -6849,  -6973,   5528,    171,   1335,    -78,  -5267, -14025,    890,  -3037,   1744,  -7991,   6721,   2274,   -412,  -2680,   1061,    618,    554,  -1702,  -2673,  10921,   1338,   3835,  -4273,  -2340,   3408,   8016,    598,    884,   7686,   4657,  -3532,  -7284,  -6186,  -4630,  -5441,  -4524,   1312,     79,  -3223,  -3472,  -2433,  -3252,   9198,   5814,   2157,  -8502,  -4139,   -884,  -2547,   2341,   1016,   1396,  -1066,   -695,  -5852,  -2773,  -5978, -10030,  -1676,   1341,   1592,   5097,   4364,  -6996,  -1186,    542,   -367,    566,   1216,  -1022,   -555,   1443,    474,    282,  -9553,   1496,   2661,  -1774,  -3310,   6272,  -4820,  -1981,    211,   4821,   -846,   2986,   1708,  -1628,  -3022,   3602,   7306,   2016,   6153,  -2665,  -1087,    152,   1103,  12457,   9289,    585,    -96,  -2074,  -2875,   2457,   6346,   1975,   3852,   2935,   2892,  -4371,   6824,    604,   9626,  -1669,   1789,  -2992,    517,   -822,  -1609,    323,   3652,   6057,  12177,  10386,  10692,   5378,    842,  -3332,  -2373,   2440,  -8825,   2956,  -1418,    402,  -1253,  -2022,  -6584,  -2174,     15,  -1836,  -1902,  -1127,   -622,  -7325,   1781,  -1864,   6211,   -716,  -5951,  -3015,  -1164,  -2577,   2714,  -1016,   4258,   2861,   -878,    853,   1737,  -2609,  -6175,   8306,  -1813,   2740,  -3407,   -726,   2246,  -1965,   -544, -10858,   6019,  -3211,   4449,   6212,  -4383,  -3470,   3157,  -2044,  -1280,   3397,  -8338,  -6658,   -859,  -3887,   1128,  -9964,   2216,  -4300,  -4776,  -4424,    746,  -3295,   1819,  -2674,  -6154, -10528,   1363,  -3203,  -2371,    -16,  -9080,  -5643,  -1929,  -2997,  -1760,  -2163,  -7512,    613,  -1199,  -2184,   9404,    403,   1272,   5509,  -1298,   6654,  -5385,    901,   7588,   9602,  -1537,   -537,   1977, -10913,    203,    668,   2558,  14257,  -5904,  -4315,   2093,  -1538,  -2241,   2033,  -1243,   7125,   -414,   6099,  -4222,  -2738,  -9298,  -3963,   3673,  -2129,   1184,   7181,  -2979,  -4016,   2194,  -1181,  -3430,   4952,   -634,   -295,   4865,  -2743,  -8017,   -152,   5531,  -5484,   4406,   3016,   1740,  -9202,   2913,  -8403,   -505,   5025,  -3963,     54,  -3297,   4307,  -4946,   -319,    617,  -1833,   4583,   5426,   2372,  -5394,   2390,  -3701,   4427,  -3534,  -4271,  -2423,  -7866,  -4555,   3015,  -1410,  -1696,  -2530,   1693,   -771,  -3433,   2444,   2351,   -152,   -137,   2204,  -2544,   2078,  -2337,   4582,   9729,   2542,  -1626,   2692,  -5764,  -8125, -12765,    -18,   4343,   1203,  -3047,  -4611,    315,   6540,   3496,   -415,   1386,   1556,    266,   4778,  -2481,  -8955,  -1712,  -1147,   2082,  -5381,   1345,  -4931,  -8138,  -3269,   1987,   4898,  12806,   3408,    737,  -2497,  -9512,  -1422,  -4351,   -219,   3433,    333,   1527,   3071,   2952,  -4653,   -696,  -1462,   1835,   2068,     59,    368,  -2690,  -2134,   -635,   -219,  -2002,   1459,   1139,   1018,   3156,  -5435,  -2934,   -174,
		 -5054,   -476,   6029,    918,  -1088,  -2768,   5797,  -1859,  11543,   1992,  -5981, -11567,  -1103,   1980,   -386,  -2476,   2633,   4490,   3319,    679,  -5325,    432,  -3240,   3809,  -3068,  -8233,  -1827,   4130,   5364,  -7413, -13009,   3903,   1629,   -458,   3883,  -6841,   9848,   1173,  -5008,  -3144,  -5710,   2053,   -205,  -6233,   1958,   3064,   3327,   -440, -11183,  12997,   8349,   -727,   -731,  -4079, -10386,   2224,   7835,  -1447,  -4696,  -2105,  -4805,  -2448,  -2414,   -427,  -1818,   2596,    140,  10642,   3283,   7410,   9647,  -1383,   3734,    347,   3105,   3371,  -9156, -10749,  -4029,  10753,   2683,  -1281,    364,  -8098,   1029,   2696,   7151,  -2891,   1385,   2051,   3055,  -1146,  -1580,   1027,  -2764,   5683,   8258,   4446,   6439,   -324,  -5343,  -2923,   5467,   1434,   7150,  -8720,   1706,   -871,  -6984,  -2479,   6526,   2625,   7531,   -397,   8760,   2955,  -2272,  -9719,   3585,   2634,   4603,   8102,  -2891,  -9295,  -2866,  -3308,  -4560,  -1894,   6896,  -2800,  -7024,  -1219,  -9198,  -7545,  -1159,  -4744,   9914,   4856,  -9913,   1342,   1096,   8303,   3305,   6545,   7993,  -6068,  -1565,   3197,  -3647,   3761,   4465,  -3783,    809,   9632,  -2185,   6549,    801,   1031,  -7804,   4592,   3981,  -2840,   6972,   9100, -10884,   3622,   2652,   4864,   1675,  -2890,  -3082,  -4079,   2567,   4847,  -5010,   3243,  -2357,  -3473,   1705,   2386,   2289,   3862,  -4620,   6079,  -4172,   3971,   2141,   8700,  -4236,  -2490,   6013,  -1154,  -1859,  -4428,  -2803,  -5249,   3589,   1060,   -272,   5690,   -198,   3340, -13523,  -2882,   4182,   1445,   5217,   3270,    248,   -873,   1406,   1921,     57,  -1272,   -195,    330,  -3869,    102,  -9701,   3177,    382,   3121,   1586,   2436,  -7213,  -2102,   6280,  -1906,  -2952,  -3190,  -4021,   2417,   1291,  -4986,   -824,  -2965,  -4819,  -1068,   1950,   -486,   4576,  -3959,   1707,    -71,  -6065,   3559,  -5640,  -1675,  -1380,   5218,   7447,  -3945, -11328,  -1987,   4155,  -2447,    572,  -8547,   4248,  -9053,    416,   1007,   -262,   2547,  -1466,  -1051,  -2220, -10348,  -1541,  -3083,  -2242,  -6819,  -1886,  -6548,   3635,  -7429,  -4528,   7110,  -3764,   1842,   2179,    297,  -1644,  -5830,  -1039,  -5934,   9889,   2173,    174,   -878,   3703, -17908,   8925,  -5793,  -3351,   3134,    766,  -5059,  -5686,  -5304,   5895,    785,  -4067,   2720,   5199,  -5669,    972,    577,  -1938,   2196,   -372,  -1433,   2695,   8227,   5799,   1344,   2328,   8341,    841,   2862,   4346,  -3207,    980,  -3646,  -3359,   1198,  -3102,  -3699,  -5009,   6179,    181, -11610,   1734,  -5062,    601,   -560,  -9799,  -4748,   9013,  10311,   5460,  -4229,  -3018,   3146,    -61,    866,   1966,   2157,    106,   -181,  -2956,   3255,  -1971,   5381,  10268,  -4354,  -1207,  -4589,   4565,  -3952,  -1731,   5738,   3418,  -3896,  -2162,  -6300,   2097,  -3790,   1679,  -3057,   8027,  -5192,  -2530,  -4805,  -2913,   9900,   7548,  -1008,   -241,   3784,   -817,   1565,   7675,   1028,   8773,   3438,   2587,   8663,  -2124,   4441,  -2402,  -2431,  -1792,  -5906,   4829,  -8889,   2205,     40,   -881,   5213,  -6851,    291,  -1275,   4538,   1921,   8402,  -2442,   -975,  11967,  -6211,   7724,  -3036,  -1480,   4780,   -534,    643,   4181,  -6557,    -83,   5908,  -7175,   -826,  -2487,   5035,  13559,  -2453,  -5931,  15785,   -624,    226,   7100,   4984,   -366,   -874,  -2067,   4581,   5678,   9997,  -1216,  -3024,  -7277,   4360,   7330,  12622,  -1486,    269,   3125,   3989,   4942,   2473,   2886,   7571, -11001,   4898,  -6482,   4710,  -5793,  -2734, -10943,   -141, -11589,   5622,  -7320,   -713,   7356,  -2097,   2108, -13062,  -5253,   1631,  -7604,   7987,  -4102,  10643,  12354,  -1501,    560,  -1068, -14410,   4538,   5587,  -1919,    750,  -3441,  -3366,   4322,   2396,   4522,  -6606,   8061,   8192,   -910,  -4242,   -784,  -1437,   2020,  -3113,    132,   3099,   -503,  -1371,   4192,   2921,   3053,  -4362,   9645,   -856, -10184,  -9428,  -1318,  -4393,  -1772,
		 -5595,  -7509,   1469,    -78,   1553,  -6071,   4840,   4564,   3892,  -3366,   4361,   7857,   5858,   1542,  -1704,   1140,   3319,  -6051,   1733,   6042,  -4479,   3038,  -2099,  -1517,  -2535,  -8318,   2425,  -2278,   6493,  -4155,   2988,  -3016,  -5242,   1691,   2392,  -4499,  -2032,  -1025,   -337,  -2744,  -1252,  -3277,   1374,   -496,   -379,  -1489,    698,   6726,  -2794,  -4492,   1185,    235,   4646,   2730,    -50,  -5714,   4326,    194,   -545,  -3594,  -2899,  -8855,   8637,   4290,   3322,   2648,   2839,   4228,  -6982,  -6287,  -5491,  -3718,   4990,  -7823,   -403,   3269,   3099,  -1414,     14,  16445,  -5370,  -1896,    884,  -4509,  -1622,  -3622,  -4096,  -1410,    216,   -449,  -3542,  -3252,  -2870,   8427,  -7378,   5827,  -5134,  -6623,   4617,   4983,   4070,  -3170,  -3806,    116,  -1479,  -5913,   2229,   5872,   -927,  -2016,  -6986,   -992,  -1958,  -5973,   1796,  -2506,   1977,   2498,   3052,   1432,  -1938,  -5537,   -344,   4097,  -2287,  -2782,   -173,   6517,   2069,   3932,  -1160,   5687,   2858,   4254,   -612,  -2690,   5849,  -2106,  -1059,    707,  -5914,   2957,   4295,    869,   3431,  -6092,  -6828,  -2128,  -4855,  -1402,     57,  11046,  -4265,   6274,   2528,    464,   -286,  -1509,  -2259,  -5485,   4221,   1587,   1479,   6248,   -572,   7803,  -7680,  -4834,    196,  -6919,  -4332,   5359,   4781,  -5036,   -434,   -969,   3325,   4036,  -3046,  -9008,   4261,  -4615,   -846,   8065, -14886,  -8911,   5200,   4824,   2839,  -7198,  -5587,  -1053,   6212,   3791,  -2712, -10766,  -9848,  -7254,   3662,   4493,  -4008,    778,   2788,   5305,   1525,   3305,   -432,  -5885,  -1328,   2418,  -3018,   -491,  -3065,   1313,   1072,  -1186,   8531,   4175,   8786,   4064,  -7061,  -1396,   3375,   4076,   2159,   1093,  -8221,   3254,   3847,   -271,   4442,   2496,   1731,   2653,    697,   1441,  -5014, -14042,  -5404,  -2541,  -1072,  -2737,  -1535,   2773,  -2383,  -2196,   7340,   1378,  -5236,  -3489,    281,   6492,    740,  -9602,  -4671,  -4128,   2368,   7442,   2428,   3690,  -1524,   1416,    504,   5171, -10837,  -2619,  -5063,   1835,   3353,   4965,  -5886,   3125,  -2068,   7881, -10201,    591,  -2714,  -7479,   2303,   2882,  -1312,   3981,  -2014,   3068,  -3187,   7099,  -1436,   2557,  -3904,   5500,  -5015,    768,   2038,  -1814,  -7691,     11,   5976,  -5606,  -8963,  -1066,  -8807,  -2830,  -1387,    291,    697,   1034,   1167,  -5084,   2345,  11228,  -7948, -11277,  -2908,  -7783,    841,  -9779,   3236,   8983,  -9006,   -717,   1774,  -4412,  -3500,   2348,  -4362,  -2124,   -930,   6173,   1679,   1647,   1625,   3168,  -6987,   1612,  -4557,   2441,  -2101,  -6169,    778,  -5336,   5941,  -3640,  -1406,   4617,   5420,   2999,    236,  -3917,  -3584,   1501,  -1159,   4330,   7572,  -7212,   4556,  10251,    524,   1662,  -1341,    928,   4044,  -3613,  -7039,   3815,  -4518,   -453,   2050,   2228,  -3107,  -2661,   6659,  -2316,   1982,   1896,  -2914,   -799,   6101, -13825,  -4577,  -3875,  -1193,   2351,  -5043,     73,  -4287,   5920,    631,   5707,      6,  -2380,  -3589,   5020,   6336,  -1930,   2154,   3949,   3761,  -2156,  11995,  -2770,  -2146,    761,  -5312,   4484,   3009,  -5962,  -5354,   2691,   3273,  -8594,  -1923,  -5476,   -496,   5390,  -6552,  -1388,   3901,  -2901,   -872,  -1041,   5497,   -215,   2020,   5560,   8554,   2973,   1604,  -8846,  -5149,  -2907,   2023,   1539,   1679,  -5570,   2224,  -6350,   -690,  -4705,   -829,  -7180,  -6467,   6116,  -4455,    420,   1940,   -876,  -1786,     34,   2863,  -3166,   2516,  -3551,  -1422,   2807,  -1113,   4014,   -307,  -8984,  -2282,   2274,   6556,   -583,   -907,   4478,   1079,  -4477,   3007,    260,  -3513,   1336,   5864,   1099,    430,   1493,   3738,   1111,  -2655,   9029,   2936,   -469,   7379,  -3465,   7065,   1627,  -1467,   4916,    391,  -1634,   3496,   3987,    306,  -2581,  -6361,  -1369,  -1080,  -1059,   2592,    896,    330,   -837,  -1159,  -4245,   3922,   1575,  -8764,  -1290,   1876,  -3504,  -1106,   5271,   2325, -10995,
		  2705,   1897,   -113,  13754,  -1996,   -911,  13172,   -481,  13906,   2994,   1615,  -5082,  -5743,  -1409,    171,  -5305,  -5484,   4917,   2093,  -3602,    143,   -979,   6720,  -4646,   7627,     41,   1502,    222,  -2508,   6280,   2654,   9560,  -1831,   -688,  -2785,  -2051,   2418,   4658,  13553,  -2453,  12665,   5816,   2075,   6371,   5409,   -992,   2461,   -132,   -732,  -5179, -10088,  -9662,   8071,  -1026,   2046,    577,   2792,   5108,   7310,   4324,   1514,  -2602,    895,  -4791,  -2654,   2356,    -18,  -1328,  -4535,   -320,   -493,   5317,   6045,   6310,    661,   6167,   7268, -11522,   1588,  -7159,   5322,    418,  -1807,  -5378,   3806,   1817,  -5330,   5096,  -7546,  -6519,  -6171,  -3748,    853,  -9283,  -2856,  -7550,   2591,   5322,  -2092,  -8233,   9878,  -3002,    217,   6600,  -1823,  -6907,   4297,    166,   2851,   -729,   7114,   1074,  -2469,  -3986,  -6837,  -2854,   1557,  -6802,  -2851,  -3114,   7737,  -2961,   1444,   7019,   2621, -10930,  -2264,  -3784,  -3920,   1008,  -9966,   -526,   1318,  -8855,   7079,   -663,  -3947,   3294,   5167,  -2937,  -6519,  -2844,   -827,   5685,  -3865,  -1858,   4519,  -3488,   7679,   -739,  -5982,  -1854,  -1757,    867,  -5160,  -3799,  -1823,  -3104,   5966,  -3690,   -180,  -2167,  -1533,  -5574,  -7002,   2633,   2791,  -5745,   4104,  -3141,  11050,   3252,   3904,   2165,  -3279,    825,   8597,   3424,  -2680,  -3016,  -8263,  -6773,  -7279,  -3616,   3558,  -2456,   -679,  -5620, -12265,   5532,   1391,  -4009,  11917,   3454,  -1069,  -8551,  -6900,   3072,  -5074,  -1347,  -4119,    599,  -8054,   3571,   7620,   3582,   7698, -11618,    294,    702,  -2401,     11,   3001,   -314,    206,  -1693,    924,   8478,   6985,  -2145,   3366,  -2188,  -5485,   9006,   9554,  -2706,  -1281,  -2444,  -2214,  -2387,  -3848,  -1868,   4426,   6047,  -3783,  -4623,  -6966,  -5188,   1084,  10056,   5601,   6897,  -1047,  -3051,  -7506,   4004,  -1091,   4212, -14954,  -1233,   9540,   1038,   4170,  -1902,   2981,  -7022,  -7031,   2716,  -1782,   5707,   4682,  -7865,  -4498,  -8527,  -4538,  -4934,  -7054,   5789,   4620,  -5297,   -551,   -895,   1490,    253,  -2154,  -4664,  -3803,      2,   3190,  -4275,  -5029,  -2419,  -4065,   2429,   1016,    584,   8535,   4277,  -7400,  -6733,   1340,  -8022,  -5588,  -2335,   4686,  -9339,  -4680,  -3424,   2767,  -9413,  -4400,  -1662,  -3479,  -2191,   2647,  -8471,  -4857,  -5951,  -4136,   3813,  -1246, -13071,    176,   3430,  -8121,   1775,  -3077,  -6707,   3927,  -6071,  -3158,    517,    -64,     42,   7991,   -145,  -2318,  -5228,  -3683,   -544,  -3478,  -3541,  -1322,     93,   3972,  -3168,   4253,  -1382,   4771,   -397,  -2216,   4861,    158,    -75,   9880,  -3848,  -1630,  -3807,   1915,  -2552,  -4776, -11249,   3457,    840,   1487,    372,   8005,  -9915,   1992,    894,   4198,   2034,   2566,    575,  -1102,    963,  -1155,  -2238,  -4768,  -5211,  -9265,  -4102,   3747,   4781,   6225,   5819,  -3932,  -1404,   4930,   1236,   7112,    187,  -1718,  -9941,  -3007,  -2225,    831,   2886,  -4572,    549,   3664,   1730,   -679,   2823,   1765,  -2801,  11321,   2894,  -5420,  -1620,  -2149,    -21,   2423, -10670,  -4619,   1840,   1572,   2943,  -5792,   1497,    936,  -5432,   4242,  -2152,   2607,  -3419,   1410,  -1395,  -2475,   1974,   -666,  -5170,   -473,   -693,   1272,  -4193,  -4214,    -83,   8798,   3743,   -196,  -2673,   6937,   4171,  -6320,   4250,  -3470,  -2773,  -7309,  -2373,  -5713,   3197,  -4508,   3589,    470,   -721,  -6215,   2499,   2101,   7072,  -7904,   4388,   -469,  -1745,  -7208,   2568,  -5198,  11048,   7246,   6876,   9962,   9516,  -1418,  -9718,   9297,   3815,  -3668,  -2092,  -3482,  -1075,  -1221,    921,   4639,  -5185,  -8752,  -2911,  -9162,  -6486,  -5470,  -6017,    697,   3612,   1435,  -4906,  -5539,  -2529,  -2267,   2258,   -971,    788,   1689,   -197,  -9557,    454,  -4958,  -6529,   3718,   2234,  -3472,     82,  -5934,  -1041,  -2464,   3629,  -3384,   2478,  -3467,  -9161,  -1783,  -5653,   -427,   -902};

	const static Filter<int16_t> l3_b_compress_filter(l3_b_compress_filter_element, -23, {1, 1, 64, 32});
	const Filter<int16_t> *get_l3_b_compress_filter()
	{
		return &l3_b_compress_filter;
	}

	const static __attribute__((aligned(16))) int16_t l3_b_compress_bias_element[] = {
		  -833,   2462,  -6511,  -3361,   2252,    108,   7201,   6804,  -4328,   1196,  -3287,   2571,   5994,    391,   1532,  -4318,  -2641,   5159,   1240,   -700,   1876,   1125,   3491,  -4233,  -5534,  -3582,   4382,   2398,   2269,   5147,   -210,   3461};

	const static Bias<int16_t> l3_b_compress_bias(l3_b_compress_bias_element, -12, {32,});
	const Bias<int16_t> *get_l3_b_compress_bias()
	{
		return &l3_b_compress_bias;
	}

	const static __attribute__((aligned(16))) int16_t l3_c_depth_filter_element[] = {
		  4122,  -3668,  -4285,   -916,   6980,   8441,   2321,   4619,  -3682,    336,  -7982,   -114,   4101,   2678,  -7197,   4311,  -6793,  -6839,   4955, -10948,   -608,   7615,   4395,  -9816,   1887,   -727, -11593,   8053,   4117,   9298,   3910,  17132,  -3847,   5513,  -7428,  -6183,   6820,   9677,  -2110,  14787,  -7991,  -4061,  11679, -13045,  -1776,   9865,  15679,    354,  -1387, -10772,  -3066,   4146,   -197,   2741,  -2007,   2896,   5711,  15759,  -5959,  -5897,  -6137,   -200,  -2298,   8492,  10191,  -4408,  -7424,  -5892,  -6693,   5042, -11067,   4367,  -1793, -10275, -11103,   7040,  -2375,  -5078,   4241,  -2157,   8548,   3437,  -3616,  -4158,   6487,  -9704,  -1830,  -3709,   1562,   7819,  -2728, -11885,  11360,   4307,    782,  -6123, -12795,  -1240,   5250,  -2000, -12416,  -2181,   7836,  -3442, -10301,  -2831,   5079,   3009,  -2743,  -5358,   3127, -19986,  -7903,  -7413, -14009,   9519,   8987,   1947,  -6482,  -6140,   7171,  -7503,  -2854,   2020,    854,  -8708,   8422,   9906,   2350,  -4087,   2476,   6709,  -3828,   7305,  -5216,  -4057,   5440,  -8855,  -5761,   7161,  11856,   5971,   8209,    361,  -6875,   5011,   3615,  -9931,   6081,  -2218,  -8984,  -2277,   1222,   5340,  15474,  -7745,  -1729,   1119,  -2706,  -6191,  -7601,   6044,   6544,   9890,   7281,  -6510,  15427,   5498,  -2859,   9480,  -2978,   1729,   1435,   4909,  -2463,   6984,  -5318,  -2664,  -2451,  -3706,   4169,   1329,   8890,  -7218,  -2227, -13790,   1434,  -7135,   8166,  -8483,  -7357,    411, -10055,  -4195,  -9441,   2465,  -3774,   3494,  -1364,  -4701, -10122,   -282,  -5124,  -5314,   4641,   9622,   4211,   6982,  -7348,  12784, -11547,   4672,  -5137,  -3743,  -1760, -19735,  -9228,   4423,  12338,   1224,    959,   2600,  -2440,   9066, -14596,   2175,   5155,  10035,   -675,   5667, -14511,  -1555,  13085,   2229,  -5423,  16503,   8842,  -2598,   3400,   1018,   8214,   1713,  10327,   2929,   5431,  -7702,  -1836,  12558,   -853,   2175,   8818,   6064,  -8403,   3655,   2641,  -5078,     21,   -139,   1033,    837,  -6171,   3090,  -1569,   5011,  -7115,  -8577,   -477, -13172,   2463,   4725,  -7640,   5873,   2588,  -9121,   9653,  -2829,   5528,   3219,   4382,    891,   -741,   6134,   3083,   -573,  13408,   -737,  -6521, -12622};

	const static Filter<int16_t> l3_c_depth_filter(l3_c_depth_filter_element, -14, {3, 3, 32, 1});
	const Filter<int16_t> *get_l3_c_depth_filter()
	{
		return &l3_c_depth_filter;
	}

	const static ReLU<int16_t> l3_c_depth_relu(RELU);
	const ReLU<int16_t> *get_l3_c_depth_relu()
	{
		return &l3_c_depth_relu;
	}

	const static __attribute__((aligned(16))) int16_t l3_c_compress_filter_element[] = {
		  -250,   3142,  -1934,   7997,   -175,    193,   2331,  -2909,  -2935,  -1100,  -5007,   5207,   5573,   -900,   1335,   2734,   4742, -14953,  -2268,  10984,   1274,   2413,   2591,  10381,  -8191,  -4014,   6287, -10730,   -345,  -3590,  -5778,   -304,  -2275,   3751,  -1845,   7999,   1995,  -6062,  -4884,  -6539,   4297,   2330,   4804,   6499,   -907,  -5934,  -5623,  -9608,  -4125,  -7802,   4186,   1301,    281,   3744, -14529,  -3951,   5242,    423,   -503,  -1124,    553,  -2860, -12590,   2452,  -5562,  -4037,  -2789,  -2472,   3435,  -9991,  -1326,   2920,  -1047,   1612,  -4363,   5776,   1005,  10843,  -2612,    252,   1139,    712,   1954,   1921,  -1438,  -8380,  -7626,  -5567,  13514,   5881,      5,  -6665,   1081,    703,   9397,   -490,  -4885,   9981,   4969,  -2419,  -1293,   1495,  11657,  -2111,  -7249,   5339,  -5753,  -1407,  -1834,  -9101,   5783,   3455,  -3666,  -2377,  -4109,  -3673,   -955,   -240,  -9518,   2725,   4193,   8286,   1483, -10711,   5244,   8032,  12984,   -965,   5037,    153,  -5638, -13343,  -3372,  -1509,    523,  -1752,  -1633,  -2919,    -92,  -3130,  -1331,  -3617,  12450,   1273,    656,  -5585,  -1502,  10646,  -1664,    698,  -6743,  -1032,  -9565,   6699,   5334,  -1207,  12248,  -2831,   -108,  -2671,   4604,  -3549,   5123,  -4559,  -4289,  -6454,  -4316,  -5413,  -7719,     59,  -4173,   8558,    827,  -8305,   3580,  -6498,  -9118,  -2424,  -7029,   -329,   -414,   1068,   -533,  -4241,  -7985,  -7476,  -6001,    991,  -2626, -10378,   6785,  -1184,   2805,   6723, -18686,    209,  -6522,  -8895,   6396,   2832,  -4478,    358,    -37,   8769,  -3838,  -7801,  -6002,  -2502,   -470, -20458,    103,  -3477,  -4194,    497,  -2511,   6950,   3314,   1477,    534,  -1803,  -8737,  -4378,   7571,   4543,  -8043,   4212,  -2754,   3497,   1208,   6126,  -9460,  -3250,  -8710,  -6833,  -3678,  -1007,   5511,  -4074,   1615,  -3217,  10342,   -331,   -966,  -3470,  10058,  -1841,  -1561,  -2210,  -3447,  15557,    700,   5681,  -4884,  -3572,  -4291,  -5122,  -8161,    376,   6488,   4362,  -2861,  -6428,   5236,  -2720,   1715,  -5530,   6244,   -496,   5760,  11508,   7856,   5606,   5273,    642,  -3646,  11194,  -8390,  -4062,  -6138,   3576,  -1091,   1453,   -344,  -4244,   5346,  -9357,  -2349,   -420,  -7846,  -7109,     81,  -2098,   4027,  -6497,  -5310,  -1026,  -1585,   3508,   1107,  -8590,   6253,   4356,  -2777,  -5062,   3889,   1550,  -8628,   2378,  -3320,  -9566,  -7992,   2170,   8062,    561,   6925,  15880,  -1460,  -4836,   5188,  -8855,   4380,   7615,  -2525, -11980,  -2796, -11372,   7555,  -8629,   5605,  -1752,   6910,  -8280,  -7136,    958,  -3730,   -683,   6713,   6434,   1720,  -1736,  -3031, -12903,  -5438, -15194,   2661,  -2999,    368,   8163,   -563,  -6751,   -601,  -1634,  -4508,  -1474,  -2155,   9320,   6387,   1959,    774,    129,    774,  10122,   2018,   3772,    575, -16107, -12175,   1301,  -5600,  13284,  -5172,  -2372,  -3408,  -6465,   4252,   5653,  -1747,   1376,    856,  -5684,    -42,  -5503,  -1415,    277,   -866, -12332,  -9915,   2448,   5593,  -2867,   -925,   -934,   -564,  13670,   7187,   4295, -10283,   6062,  -1974,  -2074,  -7240,     24,  -2412,   -394,  -2743,   5253,  -1638,   1037,   4844,  -7206,   1449,    612,   6248,    467,    382,   6264,  -3052,  -2885,  -2353,  -4017,   5351,   2341,   -333,  -2538,   5027,   8297,      0,  -5704,    337,  -5752,  10017,  -4185,  -4072,  -5177,    490,  -2456,  -4635,   6581,   3542,  11973,  -3075,  14801,   2053,  -1502,  -1501,   1991,    127,  -8952, -10196,   4169,  -8852,  12232,  -4483,  -2076, -10664,   1905,   4726,  -6492,   5253,   3293,   2349,     92,  -1958,  -6941,  -5732,  -3027,   -738,  -2241,  -2854,   2244,   5773,   6785,  -9267,  -8002, -10628,  -5588,  -6173,   4858,  -1764,  -5355,   1987,   3805,   1630,   1016,   8129,   6178,   6554,  -8621,   2442,  -8342,   1491,  -2362,   1063,   3169,  12992,   2640,   4861,  -4575,   2662,  -2407,  -1913,  -6502,  -6384,   2476,   2347,   3078,   3006, -12233,  -5286,  10587,  -3749,  -3009,
		 -9204,   4503,  -4168,  12602,   -862,   2771,   1640, -11309,  -1401,    902,   4221,   7262,   3080, -15879,   7597,   5221,  -2197,   6229,  -8827,   9531,   2098,  -2948,   8319,  -4506,  -3423,   1006,   -936,  -6574,  -2230,  -3942,  17281,   1779,    249,  -1382,  -2710,   -554,  -3335,   5354,  -2202,  -4945,   7416,  -5560,    237,   -300,   -559,  -5074,  15067,  -4322,    -84,   2217,   7207,   5057,   7941,  -3707,  -1156,   7951,  11267,  18418,   3669,   2454,    345,   9734,  -4908,  -2528,   3246,   9592,  -3276,  -4071,  -8073,   8919,   4685,   9657, -15645,    742,  -5627,  -4496,  14150,  -2658,   2831,  -3536,   2280,  -3185,    953,   1254,   2229,   2927,  -6653,  -9535,  12219,  -1355,  -3140,   -681,     65,   -488,  -4787,  13572,  -4434,   8168,  -5851,  -4812,   1283,   6913,   5040,   6093,  -3555,   8672,   7410,  -6400,   3975,   9616,   3843,    679,   5444,   8187,  -3842,   5916,    140,   6200,  -8966,  -3821,   -616,   7047,  -1553,   8240,   5992,   1384,  -9366, -15439,   6950,  -2429,  -3726,   -648,   4917,  -2740,  -5527,   8536,  -1815,  -7252,   6226,  15357, -11986,  -6567,  11402,   8105,    518,  -5757, -11923,   7745,  15165,  14086,   7494,   5835,   8470,  -3600,   2270,  -1127,   9050,  -9673,  -9689,   6244,   7516,  -4183,   -312,  -6763,   1558,  -6431,   1054,   5529,   4350,  -2883,   3061,  -7063,   4673,  -1278,   7811,    534,  -3908,   2417,    175,  -4419,    513,  -3569,  12728, -20891,   -924,   9452,  -3594,   5210,  11010,   -765,   1690,  -4954,    561,    688,   -378,  16988,  -2167,   5251,  -8493,   5040,   9163,   4472,  -5628,  -8618,   1292,  -1183,    279,  -7685,  -7303,   2030,   4379,   3944,  -3610,   -368,   2381,  -3893,   3810,   3454,   5227,  12444,   1105,  -2646,  -5293,   6526,  -7813,  -7688,    926,   3900,  -4868,  -2840,   1180,   7269,  -1678,    192,   6795,   2861,    270,  -1040,   2274,    695,   3020,   1988,   8540,    491,  13629,   -656, -15242,   5405,   2158,   -864,   7353,  -3755,     49,   7782,  -4754,  -1921,  -2403,  -4514,   1422,   4820,   4858, -10031,   3133,   5340,  -7867,   6788,  -7240,  -3662,   4719,  13896,   4729,  -6805,  -9675,     -6,  -8501,   -243,   3505,  -8986,  -3019,  -6088,   1884,   6157,  -8705,   -605,   2029,   6957,   9999,  -7940,    595,   -144,  -7585, -14442,  -1586,   1166,    -67,    884,   5269,  -8916,  -2902,    520,    115,  -2389,  -1407,  -6277,   9642,   2674,   -916,   1246,  -2017,   5223,   3155,  12198,   7609,  -3511,    782,  10545,  -2153,   1039,   5952,  -8102,    555,   2954, -13229,    140,  -9969,   5533,   3102,  -5976,   2226,  -1244,   2907,   1707,   8393,   -529,   1964,  -3825,   2273,   3441,  14148,   -554,    673,   4607,   5943,  -2362,   5096,  -3603,   5724,   7466,  -2030,    -71,  -7885,  -3399,  -3737,    107,   6373, -10804,  -2387,   6149,   8988, -15530,   -850,  -3749,  -1359,   4128,   4907,  -3463,  -1301, -10897,   3523,  -1136,   6054,  -3944,    900,  -2680,  -1242,   8585,   -225,    807,   3962,  -8749,  -6256,    243,   7412, -13694,   8314,  -6109,   4814,   6300,   1706,    -50,  -6335,   1244,   1117,  -7188,   8779,   5133,   4940,   8567,  -6146,   9052,  -1772,  -4885,   2609,   9188,  10697,  -1969,  -7679,  -5365,  -5109, -11010,   -459,   2105,   2394,   -696,  -3490,    965,   9939, -12377,   -270,   1865,   2205,  -2433,  -6140,   7493,    734,  -4132,  -4453,   7889,   9538,  -1355,  -1188,  -1786,  -9990,  -5418,  -4609,   6750,   7244,  -5846,   3484,  -3563,  -2518,   2200,  -5897,   3588,  10973,  -1709,  -6552,  16617,   2201,  -5730,   1987,   -242,   1632,   4350,  -2645,  -1787,   1830,    954,  -5157,   2837,   6618,  -5485,  -1470,   1571,  10707,   6032,  -6112, -10251,  13726,  -4723,   4672,  17520,  -6805,   8986, -11642, -15127,   3524,   4256,   4586,   2864,   2805,  17327, -11145,  -6011,   8761,  -6131,   4008,   4849,    -60,  -2550,   2744,    976,   6956,  -4238,    819,  -2743,  -4402, -11481,   4980,  -7653,   3092,   4669,    168,   2944,  -2812,  11655,  -5378,   3290,   9747,   3644,   2185,  12565};

	const static Filter<int16_t> l3_c_compress_filter(l3_c_compress_filter_element, -15, {1, 1, 32, 32});
	const Filter<int16_t> *get_l3_c_compress_filter()
	{
		return &l3_c_compress_filter;
	}

	const static __attribute__((aligned(16))) int16_t l3_c_compress_bias_element[] = {
		  1739,   -505,   2221,   1399,    320,   3157,   1361,   -592,   -607,   -491,   -307,  -2788,    809,   3575,   -260,    744,  -1349,  -2901,   -327,  -2789,  -3491,  -1166,  -1113,    -60,   -394,   1810,   1804,   -863,  -3997,   -903,  -2046,   1744};

	const static Bias<int16_t> l3_c_compress_bias(l3_c_compress_bias_element, -12, {32,});
	const Bias<int16_t> *get_l3_c_compress_bias()
	{
		return &l3_c_compress_bias;
	}

	const static __attribute__((aligned(16))) int16_t l3_d_depth_filter_element[] = {
		 -6273,  10262,  -8521,  -7171,   9561,   4341,  -1641,   3486,  -6040,   -771,   2122,   6596,   5424,  -1580,  -4015,   8465,  -5770,  -1636,  11885,  -1024,  -6979,  -1774,  -7446,  -8242,  -4297,  -5196,  11462, -15574,  10538,  10662,  -8599,  -1463,   3193,  -8864,  -2877,  -4185,   4393,   9425, -14789,  -3365,   1597,  -6686,   2488,  -8138,   -249,   1774,  -4175,   3964,  -6754,   5185,  -7757,   1590,  -2734,   9812,   -805,   2430,  14414,  12764,  -3520,   7588,   1034,   6704,  -8260,  -4504,   3421,   5405,  -7860,   3625,   2096,   1018,   3488,  15524, -13666, -10561,   2908,   5857,    151,   1924,   5877,  -1253,   3528,   7073, -12581,  -4880,  -8715,  -7043,    553,   6463, -10002,  -8134,   1557,   -414,   6571,   6452,  -2588,   2004,   2231,  -1586,   5915,  13036,  -5614,   2641,   3517,   7548,    792,   -610,  -8286,  -8862,  -6175,   -276,  16784,    498,  -3329,  -3274,  10995,   5913,  10769,   5906,  -1392,    575,   2169, -10290,  -3639, -13538,   3448,   2958,  -6963,   6494,   7433,  -6517,  -5400,   8960,   1930,   2551,  -7152, -16345,  -6671,    942,   -201,   1612,  -5111,   -457,  -2367,   1011, -14807,  -9288,  -8439,    544,  18563,   -253,  -9299,  -2261,   6494,  11755,  -9271,  -5470,   2093, -10450,  -1222,  -3941,   1240,  13125,  -1866,  13888,  -6475,  -8072,  -1322,   4743,   3918,  10781,  -9498,  -2665,  -5474,   7725,  -4043,   5072,  -3433,  -6026,   1038,  -4479,    -19,  -5163,  -7349,  -8301,    -40,  -6967,   5176,  12878,   -463,   4393,   7345,  -9402,   4522,    603,    281,   7049,  -1450, -13483,  -2344,    785,   9127,  -1889,   4571,  -7161,   4046,    992,  -2505, -10875,  -5404,  -4821,  -1816,  -4396,   2799,   -702,   7915, -13661,   8085,  -3716,  11490,    927,   8341,  13766,   3861,  10568,   7467,  -7376,   8101,   4213,   3592,   4737,  -6225,  10179,  -2464,  15963,   -743,   9596,  -5729,   7621,  10473,  -6887,   1908,  -3907,  -9186,  -1431,   7844,  -7774,  -1670,   4888,  -7107,   4528,  -5707,   3302, -11135,   5691,  15677,   7971,  -9270,   4978,  -1603,  14538,   -172,   5696,    100,  -6846,  -9018,    733, -11813,   1165,  -3008,  -4412,  -4948,  -4455,   2565,   7627,   3030,  -8996,   7078,   5097,  -5110,  -1494,  13729,   2516,   2451,   2078,   7803,   8953,  -8662,    785};

	const static Filter<int16_t> l3_d_depth_filter(l3_d_depth_filter_element, -14, {3, 3, 32, 1});
	const Filter<int16_t> *get_l3_d_depth_filter()
	{
		return &l3_d_depth_filter;
	}

	const static ReLU<int16_t> l3_d_depth_relu(RELU);
	const ReLU<int16_t> *get_l3_d_depth_relu()
	{
		return &l3_d_depth_relu;
	}

	const static __attribute__((aligned(16))) int16_t l3_d_compress_filter_element[] = {
		  5327,  -7655,  -3368,   4933,  -2824,  15455,   4586,  -6092,  -6958,  10368,   7059,  -3361,    210,   2552, -12083,   -235,   5919,   8075,  -6861,   7675,  -6016,  -5028,  16215,  -6049, -13656,    805, -11648,  -5443, -12246,   7866,  -5255,  -5221,  -1291, -12717,  -5110,  15237,    152, -16109, -10028,  -3707,     85,  -9514,   8010,   8247,   4105, -11724,   9433,  -9425,  -5587,   7477,  -8431,  12747,  -4723,  -7120,  -1945, -12952,   2937,  -9711,    655,  -8335,   3237,   5653,   9796,   3151,   9283,  -7988,  -2422,   2791,  -3011,  -1005,   8313,  -9577,   7591,  13666,  -1263,  -7808,   4575,  10518,  -6570,   3915,  10110,   -689,  -5725,   7991,  -1912,  -2176, -10045,  -6907,   2265,  -4635,  -1820,  -6252, -14661,    826,  10122,  10232,  -7729,   3511, -16329,  -2426,   5250,  -2710,  -2175,   6937,  -2217,  -3977,   6582,   -941,  -9289,   8790,  -8613,   2073,   4541,  12803,  -9352,  -2629,   2919,    -77,   6657, -23539, -13468,   -481,   4625,  -8319,  -6860,  -1517,  -3699,   2192,  -7096, -11960, -13205,  -7876,  -2287,  -6077,   -992,   5836,  12413,   3630,   4618, -13544,  14436,  20856, -13699,   3981,   1126,   1724,  -5935,   -875,   3290,    995,  -9045,   9859,  10844,  -2476,   9859,   2231,   5208,  -6727,  21316,  -5670,  10222,  -6690, -10455,   7100,   3216, -11286,  -9136,    960, -14545,  12616,   2758,   7745,  -2107,  -7577,  -1974,   3230,  14921,  -7734,  -3159,     11,   5008,  -1304,  -2542, -17109,  13058,   4374,   3836, -10566, -11156,   2145,  15236,  -9166,   9130,  16310,   3154,  -2767,  21758,  10091,   4263,    149,   -175,   7446,  -5885,    585,  -3280,   8105, -16669,  -1392,    870,  -7204,   2767,  -2328,   2859,  -5039,  10228, -19686,   3247,    252, -16208, -13589,  16590,  16310, -17896,  -2054, -12051,  -6509,  -5957,  -9607,  -5196, -16465, -11607,   8064,  21440,   3348,   7986,   2299, -10898, -10760,  -2890, -19831,  17895,  15249,   1813,   -368,    694,   1543,   4416,  16028, -10997,  -3096,   -687,  17478, -22881,   1024,  -6102,  -5787,  -6706,   3592,   5751,  -8595,  -4161, -17401,   1330,  -8629,  -5596, -17601,    261,   2370, -11529,  21017, -17606,   -259,  -7308,    858,  -5496,  -6216,    672,  -4423, -12844,  16092,    -42,  -2386,   -300,   2885,  -8320,  -7412,   5165,   2188,  -1220,  -1891,  -5514,  -2744,   4467,   -830,  -3503,  12543,  -4583,   1812,  -5176,  -9060,   6579,  -1732,   5748,   7156, -10120,   3285,   4391,  -2012,  -1923, -18251,    427,   2991, -12464,   -494,   4237,  14049,   -193,  11055, -20919,  -8471, -22299,  -4988,   7722,  17963,   2391,  -2825,   4746,   -455,   -459,    414,   4296,   6235,   6393,   9428,   3477,  -7425,  -7982,   8670,   -506,   2113,   9109, -13051,   6221,  12748,  -7918,  10482,   2961,   4256,  21843,   6996,  -3802,  16928, -14130,  -7326,    974,  -2284,  -1311,   8735, -12594,  10273,   -789,   2562,  -4335,  -2330,  -7387,  -7591,  -2375,   2918,  -3117,    666,  -5574,   -903,  -1582,  15540,  -9600,  -2497,  -5063,  -5438,  11304,  16959,  -4677,   -639,   4530,  17918, -13082, -12879,   1525,   7489,   4549,  -1848, -10008,   1347,  -5347,  11411,   7885,  -3863, -11711,  -1119,  -9944,  -8676,   9716,    328,  -2904,   9961,   7148, -15192, -12393,  -9731,  -3283,  -7700,  -9958,   1583,   2803,    115,  10744,  23614, -13351,  -4532,   -627,  11242,  -7785,  -7243, -19528,  14218,  -5354,  12252,  -6548,  -1523,  -3171,   1375,  -2783,  -3688, -10903,  -1851,    330,  -1025,   8265,  -6067,   8299,  -5239,  -5572,   3602,   5225,   3657,   4415,   6584, -25946,  -1795, -14959,  -1240,   3081,   9629,  -7194,   5963,  -1163,   1559,   7857, -12378,  -5720, -11771,   3897,   6903,  -5495,   2088,   9624,   5597,    522, -14967,     61,   9717,  -3824, -10318,   7486,   8551,   3421,  -4831,   9868,  -1659,  12136,  -3098,  -8986,    -31,   4545,   3194,   1265, -12989,   1946,   6601,  -3215,   2315,  10167, -15034,   9557,  -3388,  -4215,  -1051, -12138,   1221, -11197,  10596,   -644,   6967,   -660,    682,  -4394,   4271,   -490,  -4118,   8339, -12186,  -4600,   6228,
		 -8054,  -4071,  -3103,   7695,   7278,  -2762,   2911, -12873,    466,   9467,  -5700,   2887,  11452,  -2342,  -1340,  -3988, -11357,   9419,  -9215, -21793,  -3786,  -9106, -18696,  -5772,     91, -13228,   6608,   6043,  12456,  -2347,   1425, -23528,  -1819,  -6641,   4012,    218,  12816,   -428,  -7697,   1979,   8709,  10953,   6832,  -1976,  16010,  -4390,  -9507, -10103,  -6372,  10529, -11475,  -7455,  10511,    -16,  -8737, -11565,    584,   -499,   -806,    450,  -1558,  -2646,   4897,  10801,    540, -16933,  10331,   7862,   6638,   -810,  -3306,   7085,  -7649,   8673, -13428,     80,   1064,   5129,   6297,   5012,   4081,  -7412,   4147,   7488,   -987,  -2805,  -8121,  15202,  10308,  -9091, -15477,  -4375,  -8631,   2517,   8381,  -3896,   7931,  -2649,  -2900,  -8421,  -5253,  11029,   2414,   -906,  -3324,   8378,    960,   5705,   8664,  -8782,  -1603,  -3647, -11434,    617,  13556,    722,   3830,  -4865, -11789,   2943, -13592,  -6304,   2312,   9365,    136,   4172,   -605,   8058, -10086,  -7713,   6557,     -7,  -2617,   -282,  -4813,  -2232,   2641,   7208,  11153,  -4871,   5000,   2317, -12746, -12049,  -4500,  15226,   7847,  -1989,   2237,   8185,  -3370, -10922,  -6650,   9603,    184,  -9133,   1312,  10268,  -5854, -11620,   2447,  -1985,  12264,   9504,   -707,   5263,  -2263,  14977, -11557,  15278, -14822, -10290,   9174,  -7402,   2758,  12530,   1033,   -206,  -3491,   2309,   4350,  -3211, -24226,  -1424,   9603,  -1217,  12217,   1134,  -7735,   1871,  -2409,  15981, -11736,   3310,  11559,  -9319,  -5426,    -20,  10146,   1115,   3259,   7611,   2706,  -7158,  24720, -10917,  -1639,  -1718,  -4676,  -3860, -10171,  -8358,   -522,   -758,  -4420,  13125,   1178,    167,  10119,   4277, -10773,  -5161,  -4501,   2533,   2587,   4549,  -1186,   -180,   -278, -12670,  -1593,   7165,   3708,  -8450,   1372,   4188,  -7899,  10730,  -1754,   1096,   3692,   7848,   8872,  -8339,   5592,  -6748,  -9798,  10091,   -851,   5726, -13706,   9554,   2230,   2645,    356,  22582,   5894, -19103, -10383, -11781,  12651,   5624,   9316,  -1667,   7552,  12910,   -702, -11049,   4087,    150, -11856,  -3334,  -2521,  -5842,  -4344,  13855,  -1174,   2576,  -8016,  -4093,  -2227,   2828,  -9098, -15204,   4704,   3565, -13696,   3538,   9780,  -3672,   6351,   5182,   2387,   6897,  -4526,   -909,  15139,  -6393,   -664,   -696,  -2618,   2741, -12833,  -5448,   1476, -16234, -15193,  -2757,  -7895,  -3479,  -4232,  -3265,   2198,  -1301, -14345,   8040,  -2195,  -5656, -14680,  -9144,   2052,  -1020, -14209,   8482,   2158,  -2155,   2025, -13734,    -33,  -8514,   4546, -26993,  -2978,  -8864, -10975,  -5435,  10834, -10073, -25341,   -391,   9014,   3788,  10457, -11292,  -4123, -11674,   6390, -10510,   5501,   9279,  17233,   9825,  -1013,   -948,    -29,  -9972,  -8304,   5597,   9493,   5701,   -809,  -7916,  -7390,   2546,  -2046,   4552,  -2065, -12416,   6346, -10609, -11084,  -7075,  -2624,  16407,   3128,   3778,   1094,    451,   4576, -10623,  -1414,  -2606, -15072,  -2924,  13167, -11687,    493,  -3085,   2451,  11731,  14402,   1190,   4936,  -2936,  -8899,  -5857,  -7811,  11700,  11406,   8136,   7751,  -9454,   3381,   5025,  -6484,  -3560,   5231,   3710,  -4643,   5098,  -5332,   8663,   1749,  -2459,  16541, -11950,  17795,   7663,   8099,  -9146,    327,  -2817,   6983,   3242,  -4469,    442,  -2280,  18532, -24163,  -7486,  -7338,   -496,   1623,   -601,   1709,   4224,   2121,   8034,   1929,   3989,   3665,  -3423,   1890,  -9438,  12749,  -1483,  -2354,   3982,  -4942,  20530,  -4068,   3901, -26117,   9170, -15584,   -857,  12322,  -2508,   7300,   8202, -14603,   1469,  -7048,  -7582,  -4197,  -4489, -21046, -11402,   -590,  -1196, -13114,    365,   1457,   4313,   -720,  -1954,   -508, -11240,     83,   2649,  -3264,   -355,   -295,  -1059,  -5581,  20127,  -8444,   -365,  -2289,   1196, -16624,  -6545,   -263,  -8451,   -139,   3513,   3075, -11154,   2308,   1109,  -3821,  21254,   1574, -22701,  -6864,  -9765, -11603,  11590,   2596,  -5807,  -4791,    482};

	const static Filter<int16_t> l3_d_compress_filter(l3_d_compress_filter_element, -15, {1, 1, 32, 32});
	const Filter<int16_t> *get_l3_d_compress_filter()
	{
		return &l3_d_compress_filter;
	}

	const static __attribute__((aligned(16))) int16_t l3_d_compress_bias_element[] = {
		 -1655,   -826,   1856,    580,    336,    746,    -42,   1680,   4210,    951,    642,   -552,  -2165,   1219,   1883,  -2934,    925,   -602,   -630,   1373,  -1856,    522,   4599,   -193,  -1229,   2307,   3981,   2378,   1550,  -1698,   1177,   1252};

	const static Bias<int16_t> l3_d_compress_bias(l3_d_compress_bias_element, -11, {32,});
	const Bias<int16_t> *get_l3_d_compress_bias()
	{
		return &l3_d_compress_bias;
	}

	const static __attribute__((aligned(16))) int16_t l3_e_depth_filter_element[] = {
